{"learner":{"attributes":{"scikit_learn":"{\"_estimator_type\": \"regressor\"}"},"feature_names":[],"feature_types":[],"gradient_booster":{"model":{"gbtree_model_param":{"num_parallel_tree":"1","num_trees":"300"},"iteration_indptr":[0,1,2,3,4,5,6,7,8,9,10,11,12,13,14,15,16,17,18,19,20,21,22,23,24,25,26,27,28,29,30,31,32,33,34,35,36,37,38,39,40,41,42,43,44,45,46,47,48,49,50,51,52,53,54,55,56,57,58,59,60,61,62,63,64,65,66,67,68,69,70,71,72,73,74,75,76,77,78,79,80,81,82,83,84,85,86,87,88,89,90,91,92,93,94,95,96,97,98,99,100,101,102,103,104,105,106,107,108,109,110,111,112,113,114,115,116,117,118,119,120,121,122,123,124,125,126,127,128,129,130,131,132,133,134,135,136,137,138,139,140,141,142,143,144,145,146,147,148,149,150,151,152,153,154,155,156,157,158,159,160,161,162,163,164,165,166,167,168,169,170,171,172,173,174,175,176,177,178,179,180,181,182,183,184,185,186,187,188,189,190,191,192,193,194,195,196,197,198,199,200,201,202,203,204,205,206,207,208,209,210,211,212,213,214,215,216,217,218,219,220,221,222,223,224,225,226,227,228,229,230,231,232,233,234,235,236,237,238,239,240,241,242,243,244,245,246,247,248,249,250,251,252,253,254,255,256,257,258,259,260,261,262,263,264,265,266,267,268,269,270,271,272,273,274,275,276,277,278,279,280,281,282,283,284,285,286,287,288,289,290,291,292,293,294,295,296,297,298,299,300],"tree_info":[0,0,0,0,0,0,0,0,0,0,0,0,0,0,0,0,0,0,0,0,0,0,0,0,0,0,0,0,0,0,0,0,0,0,0,0,0,0,0,0,0,0,0,0,0,0,0,0,0,0,0,0,0,0,0,0,0,0,0,0,0,0,0,0,0,0,0,0,0,0,0,0,0,0,0,0,0,0,0,0,0,0,0,0,0,0,0,0,0,0,0,0,0,0,0,0,0,0,0,0,0,0,0,0,0,0,0,0,0,0,0,0,0,0,0,0,0,0,0,0,0,0,0,0,0,0,0,0,0,0,0,0,0,0,0,0,0,0,0,0,0,0,0,0,0,0,0,0,0,0,0,0,0,0,0,0,0,0,0,0,0,0,0,0,0,0,0,0,0,0,0,0,0,0,0,0,0,0,0,0,0,0,0,0,0,0,0,0,0,0,0,0,0,0,0,0,0,0,0,0,0,0,0,0,0,0,0,0,0,0,0,0,0,0,0,0,0,0,0,0,0,0,0,0,0,0,0,0,0,0,0,0,0,0,0,0,0,0,0,0,0,0,0,0,0,0,0,0,0,0,0,0,0,0,0,0,0,0,0,0,0,0,0,0,0,0,0,0,0,0,0,0,0,0,0,0,0,0,0,0,0,0,0,0,0,0,0,0,0,0,0,0,0,0,0,0,0,0,0,0],"trees":[{"base_weights":[-9.1408907E-7,3.2921247E0,-4.0826445E0,3.0094197E0,7.8438435E0,-1.4296673E-2,-3.350896E0,3.6930597E0,1.3239388E0,8.353017E-3,6.289827E-3,-1.021022E1,-2.8150816E0,3.3868089E0,6.960658E0,4.1793637E0,9.8548603E-1,-1.1257954E-2,-8.331933E-3,-3.528673E0,-3.557436E-1,3.0199266E-3,6.824453E-3,5.1662163E-3,7.801683E-3,2.8433686E-3,4.8644864E-3,1.6520441E-3,6.208959E-4,-4.4253943E-3,-2.6007337E-3,1.4047907E-3,-1.1779837E-3],"categories":[],"categories_nodes":[],"categories_segments":[],"categories_sizes":[],"default_left":[0,0,0,0,0,0,0,0,0,0,0,0,0,0,0,0,0,0,0,0,0,0,0,0,0,0,0,0,0,0,0,0,0],"id":0,"left_children":[1,3,5,7,9,-1,11,13,15,-1,-1,17,19,21,23,25,27,-1,-1,29,31,-1,-1,-1,-1,-1,-1,-1,-1,-1,-1,-1,-1],"loss_changes":[3.8870145E4,2.0365527E3,9.60116E3,1.733875E3,2.1048828E1,0E0,4.403698E3,1.0501816E3,4.1820966E2,0E0,0E0,7.741113E1,1.9643018E3,1.2191602E3,9.70293E1,2.8273254E1,9.423828E1,0E0,0E0,7.1075586E2,3.6789297E2,0E0,0E0,0E0,0E0,0E0,0E0,0E0,0E0,0E0,0E0,0E0,0E0],"parents":[2147483647,0,0,1,1,2,2,3,3,4,4,6,6,7,7,8,8,11,11,12,12,13,13,14,14,15,15,16,16,19,19,20,20],"right_children":[2,4,6,8,10,-1,12,14,16,-1,-1,18,20,22,24,26,28,-1,-1,30,32,-1,-1,-1,-1,-1,-1,-1,-1,-1,-1,-1,-1],"split_conditions":[1.9025634E-1,5.103272E-1,2.5483724E-1,4.1012898E-1,5.716945E-1,-1.4296673E-2,6.771501E-2,4.2315504E-1,-1.0686E0,8.353017E-3,6.289827E-3,4.6942335E-2,1.7994678E0,1.3281873E-1,-2.4417807E-1,5.1832235E-1,-6.6521317E-1,-1.1257954E-2,-8.331933E-3,1.580658E-1,2.7018377E-1,3.0199266E-3,6.824453E-3,5.1662163E-3,7.801683E-3,2.8433686E-3,4.8644864E-3,1.6520441E-3,6.208959E-4,-4.4253943E-3,-2.6007337E-3,1.4047907E-3,-1.1779837E-3],"split_indices":[8,7,6,7,3,0,5,5,10,0,0,3,8,12,0,3,8,0,0,5,6,0,0,0,0,0,0,0,0,0,0,0,0],"split_type":[0,0,0,0,0,0,0,0,0,0,0,0,0,0,0,0,0,0,0,0,0,0,0,0,0,0,0,0,0,0,0,0,0],"sum_hessian":[2.89E3,1.6E3,1.29E3,1.508E3,9.2E1,8.5E1,1.205E3,1.072E3,4.36E2,6.6E1,2.6E1,8.6E1,1.119E3,9.82E2,9E1,4.5E1,3.91E2,5.2E1,3.4E1,8.67E2,2.52E2,8.89E2,9.3E1,3.1E1,5.9E1,1.7E1,2.8E1,1.37E2,2.54E2,4.39E2,4.28E2,8E1,1.72E2],"tree_param":{"num_deleted":"0","num_feature":"13","num_nodes":"33","size_leaf_vector":"1"}},{"base_weights":[1.6582915E-6,3.2888625E0,-4.0785933E0,3.0064323E0,7.8361573E0,-1.4282542E-2,-3.3475666E0,3.6893883E0,1.3226373E0,8.344789E-3,6.2837694E-3,-1.0200236E1,-2.8122723E0,3.3834326E0,6.95384E0,4.175352E0,9.845059E-1,-1.1246908E-2,-8.32384E-3,-3.5251522E0,-3.553867E-1,3.0169107E-3,6.817701E-3,5.1612104E-3,7.794012E-3,2.8406826E-3,4.8597907E-3,1.6504044E-3,6.2027655E-4,-4.42098E-3,-2.5981383E-3,1.4034024E-3,-1.1768118E-3],"categories":[],"categories_nodes":[],"categories_segments":[],"categories_sizes":[],"default_left":[0,0,0,0,0,0,0,0,0,0,0,0,0,0,0,0,0,0,0,0,0,0,0,0,0,0,0,0,0,0,0,0,0],"id":1,"left_children":[1,3,5,7,9,-1,11,13,15,-1,-1,17,19,21,23,25,27,-1,-1,29,31,-1,-1,-1,-1,-1,-1,-1,-1,-1,-1,-1,-1],"loss_changes":[3.879309E4,2.0325957E3,9.582219E3,1.7304082E3,2.0995605E1,0E0,4.395159E3,1.0481602E3,4.1741626E2,0E0,0E0,7.724805E1,1.9603867E3,1.2167676E3,9.682959E1,2.8215881E1,9.405188E1,0E0,0E0,7.0933984E2,3.6716397E2,0E0,0E0,0E0,0E0,0E0,0E0,0E0,0E0,0E0,0E0,0E0,0E0],"parents":[2147483647,0,0,1,1,2,2,3,3,4,4,6,6,7,7,8,8,11,11,12,12,13,13,14,14,15,15,16,16,19,19,20,20],"right_children":[2,4,6,8,10,-1,12,14,16,-1,-1,18,20,22,24,26,28,-1,-1,30,32,-1,-1,-1,-1,-1,-1,-1,-1,-1,-1,-1,-1],"split_conditions":[1.9025634E-1,5.103272E-1,2.5483724E-1,4.1012898E-1,5.716945E-1,-1.4282542E-2,6.771501E-2,4.2315504E-1,-1.0686E0,8.344789E-3,6.2837694E-3,4.6942335E-2,1.7994678E0,1.3281873E-1,-2.4417807E-1,5.1832235E-1,-6.6521317E-1,-1.1246908E-2,-8.32384E-3,1.580658E-1,2.7018377E-1,3.0169107E-3,6.817701E-3,5.1612104E-3,7.794012E-3,2.8406826E-3,4.8597907E-3,1.6504044E-3,6.2027655E-4,-4.42098E-3,-2.5981383E-3,1.4034024E-3,-1.1768118E-3],"split_indices":[8,7,6,7,3,0,5,5,10,0,0,3,8,12,0,3,8,0,0,5,6,0,0,0,0,0,0,0,0,0,0,0,0],"split_type":[0,0,0,0,0,0,0,0,0,0,0,0,0,0,0,0,0,0,0,0,0,0,0,0,0,0,0,0,0,0,0,0,0],"sum_hessian":[2.89E3,1.6E3,1.29E3,1.508E3,9.2E1,8.5E1,1.205E3,1.072E3,4.36E2,6.6E1,2.6E1,8.6E1,1.119E3,9.82E2,9E1,4.5E1,3.91E2,5.2E1,3.4E1,8.67E2,2.52E2,8.89E2,9.3E1,3.1E1,5.9E1,1.7E1,2.8E1,1.37E2,2.54E2,4.39E2,4.28E2,8E1,1.72E2],"tree_param":{"num_deleted":"0","num_feature":"13","num_nodes":"33","size_leaf_vector":"1"}},{"base_weights":[3.9080523E-6,3.285603E0,-4.0745463E0,3.0034473E0,7.8284783E0,-1.4268425E-2,-3.3442411E0,3.6857197E0,1.3213379E0,8.336569E-3,6.277718E-3,-1.019026E1,-2.8094661E0,3.3800588E0,6.9470286E0,4.1713443E0,9.835276E-1,-1.1235874E-2,-8.315754E-3,-3.521635E0,-3.5503054E-1,3.0138965E-3,6.810956E-3,5.15621E-3,7.786349E-3,2.8380004E-3,4.855098E-3,1.6487665E-3,6.196591E-4,-4.4165687E-3,-2.5955464E-3,1.4020159E-3,-1.1756417E-3],"categories":[],"categories_nodes":[],"categories_segments":[],"categories_sizes":[],"default_left":[0,0,0,0,0,0,0,0,0,0,0,0,0,0,0,0,0,0,0,0,0,0,0,0,0,0,0,0,0,0,0,0,0],"id":2,"left_children":[1,3,5,7,9,-1,11,13,15,-1,-1,17,19,21,23,25,27,-1,-1,29,31,-1,-1,-1,-1,-1,-1,-1,-1,-1,-1,-1,-1],"loss_changes":[3.8716184E4,2.0286465E3,9.563318E3,1.7269434E3,2.0941895E1,0E0,4.386631E3,1.0461445E3,4.1662408E2,0E0,0E0,7.708594E1,1.9564795E3,1.2143809E3,9.663135E1,2.8158508E1,9.386563E1,0E0,0E0,7.079238E2,3.6643677E2,0E0,0E0,0E0,0E0,0E0,0E0,0E0,0E0,0E0,0E0,0E0,0E0],"parents":[2147483647,0,0,1,1,2,2,3,3,4,4,6,6,7,7,8,8,11,11,12,12,13,13,14,14,15,15,16,16,19,19,20,20],"right_children":[2,4,6,8,10,-1,12,14,16,-1,-1,18,20,22,24,26,28,-1,-1,30,32,-1,-1,-1,-1,-1,-1,-1,-1,-1,-1,-1,-1],"split_conditions":[1.9025634E-1,5.103272E-1,2.5483724E-1,4.1012898E-1,5.716945E-1,-1.4268425E-2,6.771501E-2,4.2315504E-1,-1.0686E0,8.336569E-3,6.277718E-3,4.6942335E-2,1.7994678E0,1.3281873E-1,-2.4417807E-1,5.1832235E-1,-6.6521317E-1,-1.1235874E-2,-8.315754E-3,1.580658E-1,2.7018377E-1,3.0138965E-3,6.810956E-3,5.15621E-3,7.786349E-3,2.8380004E-3,4.855098E-3,1.6487665E-3,6.196591E-4,-4.4165687E-3,-2.5955464E-3,1.4020159E-3,-1.1756417E-3],"split_indices":[8,7,6,7,3,0,5,5,10,0,0,3,8,12,0,3,8,0,0,5,6,0,0,0,0,0,0,0,0,0,0,0,0],"split_type":[0,0,0,0,0,0,0,0,0,0,0,0,0,0,0,0,0,0,0,0,0,0,0,0,0,0,0,0,0,0,0,0,0],"sum_hessian":[2.89E3,1.6E3,1.29E3,1.508E3,9.2E1,8.5E1,1.205E3,1.072E3,4.36E2,6.6E1,2.6E1,8.6E1,1.119E3,9.82E2,9E1,4.5E1,3.91E2,5.2E1,3.4E1,8.67E2,2.52E2,8.89E2,9.3E1,3.1E1,5.9E1,1.7E1,2.8E1,1.37E2,2.54E2,4.39E2,4.28E2,8E1,1.72E2],"tree_param":{"num_deleted":"0","num_feature":"13","num_nodes":"33","size_leaf_vector":"1"}},{"base_weights":[6.5213376E-6,3.2823472E0,-4.0705028E0,3.0004659E0,7.820807E0,-1.4254322E-2,-3.3409183E0,3.6820557E0,1.3200395E0,8.328357E-3,6.271673E-3,-1.0180294E1,-2.8066623E0,3.376689E0,6.9402246E0,4.1673408E0,9.8254997E-1,-1.1280745E-2,-8.388314E-3,-3.518121E0,-3.5467508E-1,3.0108863E-3,6.8042176E-3,5.151216E-3,7.7786925E-3,2.8353198E-3,4.8504113E-3,1.6471305E-3,6.190416E-4,-4.412161E-3,-2.5929566E-3,1.4006313E-3,-1.1744736E-3],"categories":[],"categories_nodes":[],"categories_segments":[],"categories_sizes":[],"default_left":[0,0,0,0,0,0,0,0,0,0,0,0,0,0,0,0,0,0,0,0,0,0,0,0,0,0,0,0,0,0,0,0,0],"id":3,"left_children":[1,3,5,7,9,-1,11,13,15,-1,-1,17,19,21,23,25,27,-1,-1,29,31,-1,-1,-1,-1,-1,-1,-1,-1,-1,-1,-1,-1],"loss_changes":[3.863943E4,2.0247051E3,9.544449E3,1.7234912E3,2.0890137E1,0E0,4.378124E3,1.0441309E3,4.1583368E2,0E0,0E0,7.693652E1,1.9525791E3,1.2119971E3,9.643262E1,2.8101257E1,9.367996E1,0E0,0E0,7.0651074E2,3.6571133E2,0E0,0E0,0E0,0E0,0E0,0E0,0E0,0E0,0E0,0E0,0E0,0E0],"parents":[2147483647,0,0,1,1,2,2,3,3,4,4,6,6,7,7,8,8,11,11,12,12,13,13,14,14,15,15,16,16,19,19,20,20],"right_children":[2,4,6,8,10,-1,12,14,16,-1,-1,18,20,22,24,26,28,-1,-1,30,32,-1,-1,-1,-1,-1,-1,-1,-1,-1,-1,-1,-1],"split_conditions":[1.9025634E-1,5.103272E-1,2.5483724E-1,4.1012898E-1,5.716945E-1,-1.4254322E-2,6.771501E-2,4.2315504E-1,-1.0686E0,8.328357E-3,6.271673E-3,4.399609E-2,1.7994678E0,1.3281873E-1,-2.4417807E-1,5.1832235E-1,-6.6521317E-1,-1.1280745E-2,-8.388314E-3,1.580658E-1,2.7018377E-1,3.0108863E-3,6.8042176E-3,5.151216E-3,7.7786925E-3,2.8353198E-3,4.8504113E-3,1.6471305E-3,6.190416E-4,-4.412161E-3,-2.5929566E-3,1.4006313E-3,-1.1744736E-3],"split_indices":[8,7,6,7,3,0,5,5,10,0,0,3,8,12,0,3,8,0,0,5,6,0,0,0,0,0,0,0,0,0,0,0,0],"split_type":[0,0,0,0,0,0,0,0,0,0,0,0,0,0,0,0,0,0,0,0,0,0,0,0,0,0,0,0,0,0,0,0,0],"sum_hessian":[2.89E3,1.6E3,1.29E3,1.508E3,9.2E1,8.5E1,1.205E3,1.072E3,4.36E2,6.6E1,2.6E1,8.6E1,1.119E3,9.82E2,9E1,4.5E1,3.91E2,5E1,3.6E1,8.67E2,2.52E2,8.89E2,9.3E1,3.1E1,5.9E1,1.7E1,2.8E1,1.37E2,2.54E2,4.39E2,4.28E2,8E1,1.72E2],"tree_param":{"num_deleted":"0","num_feature":"13","num_nodes":"33","size_leaf_vector":"1"}},{"base_weights":[8.292117E-6,3.279094E0,-4.0664644E0,2.9974864E0,7.8131437E0,-1.4240235E-2,-3.3375998E0,3.678394E0,1.3187414E0,8.320154E-3,6.2656337E-3,-1.0170341E1,-2.803862E0,3.3733215E0,6.9334264E0,4.16334E0,9.815724E-1,-1.1213891E-2,-8.299527E-3,-3.5146117E0,-3.54319E-1,3.0078783E-3,6.7974865E-3,5.1462254E-3,7.771044E-3,2.8326414E-3,4.845728E-3,1.6454944E-3,6.1842415E-4,-4.4077593E-3,-2.5903706E-3,1.3992485E-3,-1.1733054E-3],"categories":[],"categories_nodes":[],"categories_segments":[],"categories_sizes":[],"default_left":[0,0,0,0,0,0,0,0,0,0,0,0,0,0,0,0,0,0,0,0,0,0,0,0,0,0,0,0,0,0,0,0,0],"id":4,"left_children":[1,3,5,7,9,-1,11,13,15,-1,-1,17,19,21,23,25,27,-1,-1,29,31,-1,-1,-1,-1,-1,-1,-1,-1,-1,-1,-1,-1],"loss_changes":[3.856283E4,2.0207734E3,9.525623E3,1.720042E3,2.0836914E1,0E0,4.369634E3,1.042123E3,4.1504468E2,0E0,0E0,7.67793E1,1.9486875E3,1.2096201E3,9.623486E1,2.804425E1,9.3494446E1,0E0,0E0,7.0510254E2,3.6498715E2,0E0,0E0,0E0,0E0,0E0,0E0,0E0,0E0,0E0,0E0,0E0,0E0],"parents":[2147483647,0,0,1,1,2,2,3,3,4,4,6,6,7,7,8,8,11,11,12,12,13,13,14,14,15,15,16,16,19,19,20,20],"right_children":[2,4,6,8,10,-1,12,14,16,-1,-1,18,20,22,24,26,28,-1,-1,30,32,-1,-1,-1,-1,-1,-1,-1,-1,-1,-1,-1,-1],"split_conditions":[1.9025634E-1,5.103272E-1,2.5483724E-1,4.1012898E-1,5.716945E-1,-1.4240235E-2,6.771501E-2,4.2315504E-1,-1.0686E0,8.320154E-3,6.2656337E-3,4.6942335E-2,1.7994678E0,1.3281873E-1,-2.4417807E-1,5.1832235E-1,-6.6521317E-1,-1.1213891E-2,-8.299527E-3,1.580658E-1,2.7018377E-1,3.0078783E-3,6.7974865E-3,5.1462254E-3,7.771044E-3,2.8326414E-3,4.845728E-3,1.6454944E-3,6.1842415E-4,-4.4077593E-3,-2.5903706E-3,1.3992485E-3,-1.1733054E-3],"split_indices":[8,7,6,7,3,0,5,5,10,0,0,3,8,12,0,3,8,0,0,5,6,0,0,0,0,0,0,0,0,0,0,0,0],"split_type":[0,0,0,0,0,0,0,0,0,0,0,0,0,0,0,0,0,0,0,0,0,0,0,0,0,0,0,0,0,0,0,0,0],"sum_hessian":[2.89E3,1.6E3,1.29E3,1.508E3,9.2E1,8.5E1,1.205E3,1.072E3,4.36E2,6.6E1,2.6E1,8.6E1,1.119E3,9.82E2,9E1,4.5E1,3.91E2,5.2E1,3.4E1,8.67E2,2.52E2,8.89E2,9.3E1,3.1E1,5.9E1,1.7E1,2.8E1,1.37E2,2.54E2,4.39E2,4.28E2,8E1,1.72E2],"tree_param":{"num_deleted":"0","num_feature":"13","num_nodes":"33","size_leaf_vector":"1"}},{"base_weights":[1.0557713E-5,3.2758443E0,-4.0624294E0,2.9945107E0,7.8054876E0,-1.422616E-2,-3.334284E0,3.674737E0,1.3174455E0,8.311958E-3,6.2596006E-3,-1.0160395E1,-2.8010645E0,3.3699582E0,6.9266353E0,4.1593432E0,9.8059666E-1,-1.1258693E-2,-8.371921E-3,-3.511105E0,-3.539642E-1,3.0048736E-3,6.7907614E-3,5.14124E-3,7.763403E-3,2.8299661E-3,4.8410483E-3,1.6438602E-3,6.178086E-4,-4.4033616E-3,-2.5877864E-3,1.3978658E-3,-1.1721392E-3],"categories":[],"categories_nodes":[],"categories_segments":[],"categories_sizes":[],"default_left":[0,0,0,0,0,0,0,0,0,0,0,0,0,0,0,0,0,0,0,0,0,0,0,0,0,0,0,0,0,0,0,0,0],"id":5,"left_children":[1,3,5,7,9,-1,11,13,15,-1,-1,17,19,21,23,25,27,-1,-1,29,31,-1,-1,-1,-1,-1,-1,-1,-1,-1,-1,-1,-1],"loss_changes":[3.8486383E4,2.0168477E3,9.506836E3,1.7166016E3,2.0784668E1,0E0,4.361158E3,1.0401182E3,4.1425708E2,0E0,0E0,7.663574E1,1.9448027E3,1.2072471E3,9.603711E1,2.7987183E1,9.330905E1,0E0,0E0,7.0369434E2,3.6426425E2,0E0,0E0,0E0,0E0,0E0,0E0,0E0,0E0,0E0,0E0,0E0,0E0],"parents":[2147483647,0,0,1,1,2,2,3,3,4,4,6,6,7,7,8,8,11,11,12,12,13,13,14,14,15,15,16,16,19,19,20,20],"right_children":[2,4,6,8,10,-1,12,14,16,-1,-1,18,20,22,24,26,28,-1,-1,30,32,-1,-1,-1,-1,-1,-1,-1,-1,-1,-1,-1,-1],"split_conditions":[1.9025634E-1,5.103272E-1,2.5483724E-1,4.1012898E-1,5.716945E-1,-1.422616E-2,6.771501E-2,4.2315504E-1,-1.0686E0,8.311958E-3,6.2596006E-3,4.399609E-2,1.7994678E0,1.3281873E-1,-2.4417807E-1,5.1832235E-1,-6.6521317E-1,-1.1258693E-2,-8.371921E-3,1.580658E-1,2.7018377E-1,3.0048736E-3,6.7907614E-3,5.14124E-3,7.763403E-3,2.8299661E-3,4.8410483E-3,1.6438602E-3,6.178086E-4,-4.4033616E-3,-2.5877864E-3,1.3978658E-3,-1.1721392E-3],"split_indices":[8,7,6,7,3,0,5,5,10,0,0,3,8,12,0,3,8,0,0,5,6,0,0,0,0,0,0,0,0,0,0,0,0],"split_type":[0,0,0,0,0,0,0,0,0,0,0,0,0,0,0,0,0,0,0,0,0,0,0,0,0,0,0,0,0,0,0,0,0],"sum_hessian":[2.89E3,1.6E3,1.29E3,1.508E3,9.2E1,8.5E1,1.205E3,1.072E3,4.36E2,6.6E1,2.6E1,8.6E1,1.119E3,9.82E2,9E1,4.5E1,3.91E2,5E1,3.6E1,8.67E2,2.52E2,8.89E2,9.3E1,3.1E1,5.9E1,1.7E1,2.8E1,1.37E2,2.54E2,4.39E2,4.28E2,8E1,1.72E2],"tree_param":{"num_deleted":"0","num_feature":"13","num_nodes":"33","size_leaf_vector":"1"}},{"base_weights":[1.3318123E-5,3.2725985E0,-4.058398E0,2.991538E0,7.7978387E0,-1.4212099E-2,-3.330971E0,3.6710842E0,1.3161507E0,8.30377E-3,6.253572E-3,-1.015046E1,-2.7982688E0,3.366599E0,6.9198513E0,4.1553507E0,9.7962165E-1,-1.1247654E-2,-8.363776E-3,-3.5076015E0,-3.5360882E-1,3.001873E-3,6.7840433E-3,5.1362603E-3,7.7557694E-3,2.827293E-3,4.8363744E-3,1.6422281E-3,6.17193E-4,-4.3989676E-3,-2.5852043E-3,1.396485E-3,-1.170973E-3],"categories":[],"categories_nodes":[],"categories_segments":[],"categories_sizes":[],"default_left":[0,0,0,0,0,0,0,0,0,0,0,0,0,0,0,0,0,0,0,0,0,0,0,0,0,0,0,0,0,0,0,0,0],"id":6,"left_children":[1,3,5,7,9,-1,11,13,15,-1,-1,17,19,21,23,25,27,-1,-1,29,31,-1,-1,-1,-1,-1,-1,-1,-1,-1,-1,-1,-1],"loss_changes":[3.8410086E4,2.0129277E3,9.488078E3,1.713169E3,2.0732422E1,0E0,4.352701E3,1.0381182E3,4.1347107E2,0E0,0E0,7.647656E1,1.9409258E3,1.204876E3,9.5839355E1,2.7930298E1,9.312427E1,0E0,0E0,7.02292E2,3.6354257E2,0E0,0E0,0E0,0E0,0E0,0E0,0E0,0E0,0E0,0E0,0E0,0E0],"parents":[2147483647,0,0,1,1,2,2,3,3,4,4,6,6,7,7,8,8,11,11,12,12,13,13,14,14,15,15,16,16,19,19,20,20],"right_children":[2,4,6,8,10,-1,12,14,16,-1,-1,18,20,22,24,26,28,-1,-1,30,32,-1,-1,-1,-1,-1,-1,-1,-1,-1,-1,-1,-1],"split_conditions":[1.9025634E-1,5.103272E-1,2.5483724E-1,4.1012898E-1,5.716945E-1,-1.4212099E-2,6.771501E-2,4.2315504E-1,-1.0686E0,8.30377E-3,6.253572E-3,4.399609E-2,1.7994678E0,1.3281873E-1,-2.4417807E-1,5.1832235E-1,-6.6521317E-1,-1.1247654E-2,-8.363776E-3,1.580658E-1,2.7018377E-1,3.001873E-3,6.7840433E-3,5.1362603E-3,7.7557694E-3,2.827293E-3,4.8363744E-3,1.6422281E-3,6.17193E-4,-4.3989676E-3,-2.5852043E-3,1.396485E-3,-1.170973E-3],"split_indices":[8,7,6,7,3,0,5,5,10,0,0,3,8,12,0,3,8,0,0,5,6,0,0,0,0,0,0,0,0,0,0,0,0],"split_type":[0,0,0,0,0,0,0,0,0,0,0,0,0,0,0,0,0,0,0,0,0,0,0,0,0,0,0,0,0,0,0,0,0],"sum_hessian":[2.89E3,1.6E3,1.29E3,1.508E3,9.2E1,8.5E1,1.205E3,1.072E3,4.36E2,6.6E1,2.6E1,8.6E1,1.119E3,9.82E2,9E1,4.5E1,3.91E2,5E1,3.6E1,8.67E2,2.52E2,8.89E2,9.3E1,3.1E1,5.9E1,1.7E1,2.8E1,1.37E2,2.54E2,4.39E2,4.28E2,8E1,1.72E2],"tree_param":{"num_deleted":"0","num_feature":"13","num_nodes":"33","size_leaf_vector":"1"}},{"base_weights":[1.5185226E-5,3.2693548E0,-4.0543714E0,2.9885678E0,7.7901964E0,-1.4198052E-2,-3.3276625E0,3.667434E0,1.3148566E0,8.295589E-3,6.24755E-3,-1.0140535E1,-2.7954772E0,3.363242E0,6.9130735E0,4.151362E0,9.786473E-1,-1.1181025E-2,-8.275208E-3,-3.5041025E0,-3.5325414E-1,2.998874E-3,6.777331E-3,5.1312847E-3,7.7481437E-3,2.8246231E-3,4.8317043E-3,1.6405978E-3,6.1657745E-4,-4.394579E-3,-2.5826257E-3,1.3951062E-3,-1.1698087E-3],"categories":[],"categories_nodes":[],"categories_segments":[],"categories_sizes":[],"default_left":[0,0,0,0,0,0,0,0,0,0,0,0,0,0,0,0,0,0,0,0,0,0,0,0,0,0,0,0,0,0,0,0,0],"id":7,"left_children":[1,3,5,7,9,-1,11,13,15,-1,-1,17,19,21,23,25,27,-1,-1,29,31,-1,-1,-1,-1,-1,-1,-1,-1,-1,-1,-1,-1],"loss_changes":[3.8333945E4,2.0090176E3,9.469363E3,1.7097422E3,2.06792E1,0E0,4.3442607E3,1.0361182E3,4.1268646E2,0E0,0E0,7.63291E1,1.9370586E3,1.2025127E3,9.564258E1,2.7873535E1,9.294E1,0E0,0E0,7.0088965E2,3.628227E2,0E0,0E0,0E0,0E0,0E0,0E0,0E0,0E0,0E0,0E0,0E0,0E0],"parents":[2147483647,0,0,1,1,2,2,3,3,4,4,6,6,7,7,8,8,11,11,12,12,13,13,14,14,15,15,16,16,19,19,20,20],"right_children":[2,4,6,8,10,-1,12,14,16,-1,-1,18,20,22,24,26,28,-1,-1,30,32,-1,-1,-1,-1,-1,-1,-1,-1,-1,-1,-1,-1],"split_conditions":[1.9025634E-1,5.103272E-1,2.5483724E-1,4.1012898E-1,5.716945E-1,-1.4198052E-2,6.771501E-2,4.2315504E-1,-1.0686E0,8.295589E-3,6.24755E-3,4.6942335E-2,1.7994678E0,1.3281873E-1,-2.4417807E-1,5.1832235E-1,-6.6521317E-1,-1.1181025E-2,-8.275208E-3,1.580658E-1,2.7018377E-1,2.998874E-3,6.777331E-3,5.1312847E-3,7.7481437E-3,2.8246231E-3,4.8317043E-3,1.6405978E-3,6.1657745E-4,-4.394579E-3,-2.5826257E-3,1.3951062E-3,-1.1698087E-3],"split_indices":[8,7,6,7,3,0,5,5,10,0,0,3,8,12,0,3,8,0,0,5,6,0,0,0,0,0,0,0,0,0,0,0,0],"split_type":[0,0,0,0,0,0,0,0,0,0,0,0,0,0,0,0,0,0,0,0,0,0,0,0,0,0,0,0,0,0,0,0,0],"sum_hessian":[2.89E3,1.6E3,1.29E3,1.508E3,9.2E1,8.5E1,1.205E3,1.072E3,4.36E2,6.6E1,2.6E1,8.6E1,1.119E3,9.82E2,9E1,4.5E1,3.91E2,5.2E1,3.4E1,8.67E2,2.52E2,8.89E2,9.3E1,3.1E1,5.9E1,1.7E1,2.8E1,1.37E2,2.54E2,4.39E2,4.28E2,8E1,1.72E2],"tree_param":{"num_deleted":"0","num_feature":"13","num_nodes":"33","size_leaf_vector":"1"}},{"base_weights":[1.7729237E-5,3.2661154E0,-4.0503483E0,2.9856014E0,7.7825627E0,-1.4184019E-2,-3.3243566E0,3.663788E0,1.3135649E0,8.287418E-3,6.2415325E-3,-1.0130618E1,-2.7926877E0,3.3598893E0,6.9063025E0,4.147377E0,9.7767484E-1,-1.1225667E-2,-8.347428E-3,-3.5006065E0,-3.5290015E-1,2.9958792E-3,6.770626E-3,5.126314E-3,7.740525E-3,2.8219556E-3,4.82704E-3,1.6389694E-3,6.159638E-4,-4.3901945E-3,-2.5800492E-3,1.393729E-3,-1.1686462E-3],"categories":[],"categories_nodes":[],"categories_segments":[],"categories_sizes":[],"default_left":[0,0,0,0,0,0,0,0,0,0,0,0,0,0,0,0,0,0,0,0,0,0,0,0,0,0,0,0,0,0,0,0,0],"id":8,"left_children":[1,3,5,7,9,-1,11,13,15,-1,-1,17,19,21,23,25,27,-1,-1,29,31,-1,-1,-1,-1,-1,-1,-1,-1,-1,-1,-1,-1],"loss_changes":[3.8257953E4,2.0051133E3,9.450684E3,1.7063223E3,2.0627441E1,0E0,4.335834E3,1.034126E3,4.1190338E2,0E0,0E0,7.6177734E1,1.9331963E3,1.2001523E3,9.544629E1,2.7816895E1,9.275586E1,0E0,0E0,6.9949316E2,3.621046E2,0E0,0E0,0E0,0E0,0E0,0E0,0E0,0E0,0E0,0E0,0E0,0E0],"parents":[2147483647,0,0,1,1,2,2,3,3,4,4,6,6,7,7,8,8,11,11,12,12,13,13,14,14,15,15,16,16,19,19,20,20],"right_children":[2,4,6,8,10,-1,12,14,16,-1,-1,18,20,22,24,26,28,-1,-1,30,32,-1,-1,-1,-1,-1,-1,-1,-1,-1,-1,-1,-1],"split_conditions":[1.9025634E-1,5.103272E-1,2.5483724E-1,4.1012898E-1,5.716945E-1,-1.4184019E-2,6.771501E-2,4.2315504E-1,-1.0686E0,8.287418E-3,6.2415325E-3,4.399609E-2,1.7994678E0,1.3281873E-1,-2.4417807E-1,5.1832235E-1,-6.6521317E-1,-1.1225667E-2,-8.347428E-3,1.580658E-1,2.7018377E-1,2.9958792E-3,6.770626E-3,5.126314E-3,7.740525E-3,2.8219556E-3,4.82704E-3,1.6389694E-3,6.159638E-4,-4.3901945E-3,-2.5800492E-3,1.393729E-3,-1.1686462E-3],"split_indices":[8,7,6,7,3,0,5,5,10,0,0,3,8,12,0,3,8,0,0,5,6,0,0,0,0,0,0,0,0,0,0,0,0],"split_type":[0,0,0,0,0,0,0,0,0,0,0,0,0,0,0,0,0,0,0,0,0,0,0,0,0,0,0,0,0,0,0,0,0],"sum_hessian":[2.89E3,1.6E3,1.29E3,1.508E3,9.2E1,8.5E1,1.205E3,1.072E3,4.36E2,6.6E1,2.6E1,8.6E1,1.119E3,9.82E2,9E1,4.5E1,3.91E2,5E1,3.6E1,8.67E2,2.52E2,8.89E2,9.3E1,3.1E1,5.9E1,1.7E1,2.8E1,1.37E2,2.54E2,4.39E2,4.28E2,8E1,1.72E2],"tree_param":{"num_deleted":"0","num_feature":"13","num_nodes":"33","size_leaf_vector":"1"}},{"base_weights":[1.9995492E-5,3.2628784E0,-4.046329E0,2.982637E0,7.7749367E0,-1.41699985E-2,-3.3210537E0,3.6601448E0,1.3122741E0,8.279255E-3,6.235523E-3,-1.0120713E1,-2.7899005E0,3.3565388E0,6.8995376E0,4.1433954E0,9.76703E-1,-1.1159151E-2,-8.25906E-3,-3.4971135E0,-3.5254616E-1,2.992886E-3,6.763927E-3,5.121347E-3,7.732914E-3,2.8192895E-3,4.822379E-3,1.6373427E-3,6.1535015E-4,-4.385814E-3,-2.5774746E-3,1.3923519E-3,-1.1674837E-3],"categories":[],"categories_nodes":[],"categories_segments":[],"categories_sizes":[],"default_left":[0,0,0,0,0,0,0,0,0,0,0,0,0,0,0,0,0,0,0,0,0,0,0,0,0,0,0,0,0,0,0,0,0],"id":9,"left_children":[1,3,5,7,9,-1,11,13,15,-1,-1,17,19,21,23,25,27,-1,-1,29,31,-1,-1,-1,-1,-1,-1,-1,-1,-1,-1,-1,-1],"loss_changes":[3.81821E4,2.0012188E3,9.432041E3,1.7029082E3,2.0575684E1,0E0,4.327426E3,1.0321367E3,4.1112158E2,0E0,0E0,7.602637E1,1.9293438E3,1.1977979E3,9.525E1,2.7760437E1,9.2572296E1,0E0,0E0,6.9809766E2,3.613872E2,0E0,0E0,0E0,0E0,0E0,0E0,0E0,0E0,0E0,0E0,0E0,0E0],"parents":[2147483647,0,0,1,1,2,2,3,3,4,4,6,6,7,7,8,8,11,11,12,12,13,13,14,14,15,15,16,16,19,19,20,20],"right_children":[2,4,6,8,10,-1,12,14,16,-1,-1,18,20,22,24,26,28,-1,-1,30,32,-1,-1,-1,-1,-1,-1,-1,-1,-1,-1,-1,-1],"split_conditions":[1.9025634E-1,5.103272E-1,2.5483724E-1,4.1012898E-1,5.716945E-1,-1.41699985E-2,6.771501E-2,4.2315504E-1,-1.0686E0,8.279255E-3,6.235523E-3,4.6942335E-2,1.7994678E0,1.3281873E-1,-2.4417807E-1,5.1832235E-1,-6.6521317E-1,-1.1159151E-2,-8.25906E-3,1.580658E-1,2.7018377E-1,2.992886E-3,6.763927E-3,5.121347E-3,7.732914E-3,2.8192895E-3,4.822379E-3,1.6373427E-3,6.1535015E-4,-4.385814E-3,-2.5774746E-3,1.3923519E-3,-1.1674837E-3],"split_indices":[8,7,6,7,3,0,5,5,10,0,0,3,8,12,0,3,8,0,0,5,6,0,0,0,0,0,0,0,0,0,0,0,0],"split_type":[0,0,0,0,0,0,0,0,0,0,0,0,0,0,0,0,0,0,0,0,0,0,0,0,0,0,0,0,0,0,0,0,0],"sum_hessian":[2.89E3,1.6E3,1.29E3,1.508E3,9.2E1,8.5E1,1.205E3,1.072E3,4.36E2,6.6E1,2.6E1,8.6E1,1.119E3,9.82E2,9E1,4.5E1,3.91E2,5.2E1,3.4E1,8.67E2,2.52E2,8.89E2,9.3E1,3.1E1,5.9E1,1.7E1,2.8E1,1.37E2,2.54E2,4.39E2,4.28E2,8E1,1.72E2],"tree_param":{"num_deleted":"0","num_feature":"13","num_nodes":"33","size_leaf_vector":"1"}},{"base_weights":[2.2141012E-5,3.259645E0,-4.042314E0,2.979676E0,7.7673173E0,-1.4155994E-2,-3.3177547E0,3.656506E0,1.3109844E0,8.271097E-3,6.229519E-3,-1.0110816E1,-2.7871172E0,3.3531923E0,6.89278E0,4.1394186E0,9.757319E-1,-1.120372E-2,-8.331115E-3,-3.4936252E0,-3.5219285E-1,2.9898966E-3,6.7572356E-3,5.116386E-3,7.72531E-3,2.816627E-3,4.817723E-3,1.6357182E-3,6.147365E-4,-4.3814383E-3,-2.5749037E-3,1.3909768E-3,-1.1663232E-3],"categories":[],"categories_nodes":[],"categories_segments":[],"categories_sizes":[],"default_left":[0,0,0,0,0,0,0,0,0,0,0,0,0,0,0,0,0,0,0,0,0,0,0,0,0,0,0,0,0,0,0,0,0],"id":10,"left_children":[1,3,5,7,9,-1,11,13,15,-1,-1,17,19,21,23,25,27,-1,-1,29,31,-1,-1,-1,-1,-1,-1,-1,-1,-1,-1,-1,-1],"loss_changes":[3.8106418E4,1.9973301E3,9.413432E3,1.6995029E3,2.0523438E1,0E0,4.319033E3,1.0301504E3,4.103416E2,0E0,0E0,7.587891E1,1.9254971E3,1.1954473E3,9.505469E1,2.770398E1,9.238922E1,0E0,0E0,6.9670605E2,3.606716E2,0E0,0E0,0E0,0E0,0E0,0E0,0E0,0E0,0E0,0E0,0E0,0E0],"parents":[2147483647,0,0,1,1,2,2,3,3,4,4,6,6,7,7,8,8,11,11,12,12,13,13,14,14,15,15,16,16,19,19,20,20],"right_children":[2,4,6,8,10,-1,12,14,16,-1,-1,18,20,22,24,26,28,-1,-1,30,32,-1,-1,-1,-1,-1,-1,-1,-1,-1,-1,-1,-1],"split_conditions":[1.9025634E-1,5.103272E-1,2.5483724E-1,4.1012898E-1,5.716945E-1,-1.4155994E-2,6.771501E-2,4.2315504E-1,-1.0686E0,8.271097E-3,6.229519E-3,4.399609E-2,1.7994678E0,1.3281873E-1,-2.4417807E-1,5.1832235E-1,-6.6521317E-1,-1.120372E-2,-8.331115E-3,1.580658E-1,2.7018377E-1,2.9898966E-3,6.7572356E-3,5.116386E-3,7.72531E-3,2.816627E-3,4.817723E-3,1.6357182E-3,6.147365E-4,-4.3814383E-3,-2.5749037E-3,1.3909768E-3,-1.1663232E-3],"split_indices":[8,7,6,7,3,0,5,5,10,0,0,3,8,12,0,3,8,0,0,5,6,0,0,0,0,0,0,0,0,0,0,0,0],"split_type":[0,0,0,0,0,0,0,0,0,0,0,0,0,0,0,0,0,0,0,0,0,0,0,0,0,0,0,0,0,0,0,0,0],"sum_hessian":[2.89E3,1.6E3,1.29E3,1.508E3,9.2E1,8.5E1,1.205E3,1.072E3,4.36E2,6.6E1,2.6E1,8.6E1,1.119E3,9.82E2,9E1,4.5E1,3.91E2,5E1,3.6E1,8.67E2,2.52E2,8.89E2,9.3E1,3.1E1,5.9E1,1.7E1,2.8E1,1.37E2,2.54E2,4.39E2,4.28E2,8E1,1.72E2],"tree_param":{"num_deleted":"0","num_feature":"13","num_nodes":"33","size_leaf_vector":"1"}},{"base_weights":[2.4098503E-5,3.2564144E0,-4.0383034E0,2.9767175E0,7.759707E0,-1.4142003E-2,-3.314459E0,3.65287E0,1.309696E0,8.262951E-3,6.2235203E-3,-1.0100929E1,-2.7843363E0,3.3498483E0,6.886029E0,4.1354446E0,9.7476196E-1,-1.1192736E-2,-8.323009E-3,-3.4901395E0,-3.5184023E-1,2.9869096E-3,6.7505497E-3,5.1114303E-3,7.717714E-3,2.8139665E-3,4.8130713E-3,1.6340935E-3,6.1412476E-4,-4.377067E-3,-2.5723348E-3,1.3896036E-3,-1.1651645E-3],"categories":[],"categories_nodes":[],"categories_segments":[],"categories_sizes":[],"default_left":[0,0,0,0,0,0,0,0,0,0,0,0,0,0,0,0,0,0,0,0,0,0,0,0,0,0,0,0,0,0,0,0,0],"id":11,"left_children":[1,3,5,7,9,-1,11,13,15,-1,-1,17,19,21,23,25,27,-1,-1,29,31,-1,-1,-1,-1,-1,-1,-1,-1,-1,-1,-1,-1],"loss_changes":[3.803087E4,1.9934531E3,9.394861E3,1.6961025E3,2.047168E1,0E0,4.3106562E3,1.028168E3,4.09563E2,0E0,0E0,7.572266E1,1.9216602E3,1.1931025E3,9.485889E1,2.7647766E1,9.220599E1,0E0,0E0,6.953154E2,3.5995776E2,0E0,0E0,0E0,0E0,0E0,0E0,0E0,0E0,0E0,0E0,0E0,0E0],"parents":[2147483647,0,0,1,1,2,2,3,3,4,4,6,6,7,7,8,8,11,11,12,12,13,13,14,14,15,15,16,16,19,19,20,20],"right_children":[2,4,6,8,10,-1,12,14,16,-1,-1,18,20,22,24,26,28,-1,-1,30,32,-1,-1,-1,-1,-1,-1,-1,-1,-1,-1,-1,-1],"split_conditions":[1.9025634E-1,5.103272E-1,2.5483724E-1,4.1012898E-1,5.716945E-1,-1.4142003E-2,6.771501E-2,4.2315504E-1,-1.0686E0,8.262951E-3,6.2235203E-3,4.399609E-2,1.7994678E0,1.3281873E-1,-2.4417807E-1,5.1832235E-1,-6.6521317E-1,-1.1192736E-2,-8.323009E-3,1.580658E-1,2.7018377E-1,2.9869096E-3,6.7505497E-3,5.1114303E-3,7.717714E-3,2.8139665E-3,4.8130713E-3,1.6340935E-3,6.1412476E-4,-4.377067E-3,-2.5723348E-3,1.3896036E-3,-1.1651645E-3],"split_indices":[8,7,6,7,3,0,5,5,10,0,0,3,8,12,0,3,8,0,0,5,6,0,0,0,0,0,0,0,0,0,0,0,0],"split_type":[0,0,0,0,0,0,0,0,0,0,0,0,0,0,0,0,0,0,0,0,0,0,0,0,0,0,0,0,0,0,0,0,0],"sum_hessian":[2.89E3,1.6E3,1.29E3,1.508E3,9.2E1,8.5E1,1.205E3,1.072E3,4.36E2,6.6E1,2.6E1,8.6E1,1.119E3,9.82E2,9E1,4.5E1,3.91E2,5E1,3.6E1,8.67E2,2.52E2,8.89E2,9.3E1,3.1E1,5.9E1,1.7E1,2.8E1,1.37E2,2.54E2,4.39E2,4.28E2,8E1,1.72E2],"tree_param":{"num_deleted":"0","num_feature":"13","num_nodes":"33","size_leaf_vector":"1"}},{"base_weights":[2.6461741E-5,3.2531872E0,-4.034296E0,2.9737623E0,7.752103E0,-1.4128026E-2,-3.311166E0,3.6492383E0,1.3084089E0,8.254812E-3,6.217527E-3,-1.0091053E1,-2.7815578E0,3.3465085E0,6.879284E0,4.131476E0,9.7379273E-1,-1.1126445E-2,-8.234858E-3,-3.486657E0,-3.514876E-1,2.9839259E-3,6.7438716E-3,5.1064785E-3,7.7101258E-3,2.8113092E-3,4.808425E-3,1.6324708E-3,6.13513E-4,-4.3727E-3,-2.5697679E-3,1.3882302E-3,-1.164006E-3],"categories":[],"categories_nodes":[],"categories_segments":[],"categories_sizes":[],"default_left":[0,0,0,0,0,0,0,0,0,0,0,0,0,0,0,0,0,0,0,0,0,0,0,0,0,0,0,0,0,0,0,0,0],"id":12,"left_children":[1,3,5,7,9,-1,11,13,15,-1,-1,17,19,21,23,25,27,-1,-1,29,31,-1,-1,-1,-1,-1,-1,-1,-1,-1,-1,-1,-1],"loss_changes":[3.7955477E4,1.9895781E3,9.376332E3,1.692709E3,2.0419922E1,0E0,4.302297E3,1.0261914E3,4.08786E2,0E0,0E0,7.55791E1,1.9178281E3,1.1907607E3,9.466406E1,2.7591614E1,9.2023346E1,0E0,0E0,6.939297E2,3.5924466E2,0E0,0E0,0E0,0E0,0E0,0E0,0E0,0E0,0E0,0E0,0E0,0E0],"parents":[2147483647,0,0,1,1,2,2,3,3,4,4,6,6,7,7,8,8,11,11,12,12,13,13,14,14,15,15,16,16,19,19,20,20],"right_children":[2,4,6,8,10,-1,12,14,16,-1,-1,18,20,22,24,26,28,-1,-1,30,32,-1,-1,-1,-1,-1,-1,-1,-1,-1,-1,-1,-1],"split_conditions":[1.9025634E-1,5.103272E-1,2.5483724E-1,4.1012898E-1,5.716945E-1,-1.4128026E-2,6.771501E-2,4.2315504E-1,-1.0686E0,8.254812E-3,6.217527E-3,4.6942335E-2,1.7994678E0,1.3281873E-1,-2.4417807E-1,5.1832235E-1,-6.6521317E-1,-1.1126445E-2,-8.234858E-3,1.580658E-1,2.7018377E-1,2.9839259E-3,6.7438716E-3,5.1064785E-3,7.7101258E-3,2.8113092E-3,4.808425E-3,1.6324708E-3,6.13513E-4,-4.3727E-3,-2.5697679E-3,1.3882302E-3,-1.164006E-3],"split_indices":[8,7,6,7,3,0,5,5,10,0,0,3,8,12,0,3,8,0,0,5,6,0,0,0,0,0,0,0,0,0,0,0,0],"split_type":[0,0,0,0,0,0,0,0,0,0,0,0,0,0,0,0,0,0,0,0,0,0,0,0,0,0,0,0,0,0,0,0,0],"sum_hessian":[2.89E3,1.6E3,1.29E3,1.508E3,9.2E1,8.5E1,1.205E3,1.072E3,4.36E2,6.6E1,2.6E1,8.6E1,1.119E3,9.82E2,9E1,4.5E1,3.91E2,5.2E1,3.4E1,8.67E2,2.52E2,8.89E2,9.3E1,3.1E1,5.9E1,1.7E1,2.8E1,1.37E2,2.54E2,4.39E2,4.28E2,8E1,1.72E2],"tree_param":{"num_deleted":"0","num_feature":"13","num_nodes":"33","size_leaf_vector":"1"}},{"base_weights":[2.8895573E-5,3.2499638E0,-4.030293E0,2.9708104E0,7.7445064E0,-1.4114062E-2,-3.3078766E0,3.6456108E0,1.3071225E0,8.24668E-3,6.2115393E-3,-1.0081185E1,-2.7787821E0,3.3431726E0,6.8725457E0,4.12751E0,9.728242E-1,-1.1170856E-2,-8.306742E-3,-3.4831781E0,-3.511357E-1,2.980946E-3,6.7371987E-3,5.1015317E-3,7.7025453E-3,2.808654E-3,4.803783E-3,1.6308499E-3,6.1290123E-4,-4.3683364E-3,-2.5672046E-3,1.3868588E-3,-1.1628491E-3],"categories":[],"categories_nodes":[],"categories_segments":[],"categories_sizes":[],"default_left":[0,0,0,0,0,0,0,0,0,0,0,0,0,0,0,0,0,0,0,0,0,0,0,0,0,0,0,0,0,0,0,0,0],"id":13,"left_children":[1,3,5,7,9,-1,11,13,15,-1,-1,17,19,21,23,25,27,-1,-1,29,31,-1,-1,-1,-1,-1,-1,-1,-1,-1,-1,-1,-1],"loss_changes":[3.7880234E4,1.9857129E3,9.357836E3,1.6893242E3,2.0368164E1,0E0,4.293954E3,1.0242158E3,4.0801044E2,0E0,0E0,7.542578E1,1.9140049E3,1.1884238E3,9.446973E1,2.7535522E1,9.184119E1,0E0,0E0,6.9254395E2,3.5853326E2,0E0,0E0,0E0,0E0,0E0,0E0,0E0,0E0,0E0,0E0,0E0,0E0],"parents":[2147483647,0,0,1,1,2,2,3,3,4,4,6,6,7,7,8,8,11,11,12,12,13,13,14,14,15,15,16,16,19,19,20,20],"right_children":[2,4,6,8,10,-1,12,14,16,-1,-1,18,20,22,24,26,28,-1,-1,30,32,-1,-1,-1,-1,-1,-1,-1,-1,-1,-1,-1,-1],"split_conditions":[1.9025634E-1,5.103272E-1,2.5483724E-1,4.1012898E-1,5.716945E-1,-1.4114062E-2,6.771501E-2,4.2315504E-1,-1.0686E0,8.24668E-3,6.2115393E-3,4.399609E-2,1.7994678E0,1.3281873E-1,-2.4417807E-1,5.1832235E-1,-6.6521317E-1,-1.1170856E-2,-8.306742E-3,1.580658E-1,2.7018377E-1,2.980946E-3,6.7371987E-3,5.1015317E-3,7.7025453E-3,2.808654E-3,4.803783E-3,1.6308499E-3,6.1290123E-4,-4.3683364E-3,-2.5672046E-3,1.3868588E-3,-1.1628491E-3],"split_indices":[8,7,6,7,3,0,5,5,10,0,0,3,8,12,0,3,8,0,0,5,6,0,0,0,0,0,0,0,0,0,0,0,0],"split_type":[0,0,0,0,0,0,0,0,0,0,0,0,0,0,0,0,0,0,0,0,0,0,0,0,0,0,0,0,0,0,0,0,0],"sum_hessian":[2.89E3,1.6E3,1.29E3,1.508E3,9.2E1,8.5E1,1.205E3,1.072E3,4.36E2,6.6E1,2.6E1,8.6E1,1.119E3,9.82E2,9E1,4.5E1,3.91E2,5E1,3.6E1,8.67E2,2.52E2,8.89E2,9.3E1,3.1E1,5.9E1,1.7E1,2.8E1,1.37E2,2.54E2,4.39E2,4.28E2,8E1,1.72E2],"tree_param":{"num_deleted":"0","num_feature":"13","num_nodes":"33","size_leaf_vector":"1"}},{"base_weights":[3.1092553E-5,3.246743E0,-4.026294E0,2.967861E0,7.7369165E0,-1.4100112E-2,-3.3045905E0,3.641986E0,1.3058382E0,8.238555E-3,6.2055574E-3,-1.0071327E1,-2.7760093E0,4.172552E0,1.8318572E0,4.123547E0,9.7185755E-1,-1.1104677E-2,-8.21879E-3,-3.4797032E0,-3.5078317E-1,4.5097787E-3,8.205561E-4,2.2403102E-3,5.0622044E-4,2.8060006E-3,4.7991434E-3,1.6292309E-3,6.122914E-4,-4.3639787E-3,-2.5646433E-3,1.3854892E-3,-1.1616923E-3],"categories":[],"categories_nodes":[],"categories_segments":[],"categories_sizes":[],"default_left":[0,0,0,0,0,0,0,0,0,0,0,0,0,0,0,0,0,0,0,0,0,0,0,0,0,0,0,0,0,0,0,0,0],"id":14,"left_children":[1,3,5,7,9,-1,11,13,15,-1,-1,17,19,21,23,25,27,-1,-1,29,31,-1,-1,-1,-1,-1,-1,-1,-1,-1,-1,-1,-1],"loss_changes":[3.780514E4,1.9818555E3,9.339375E3,1.6859443E3,2.0317383E1,0E0,4.285624E3,1.0228584E3,4.0723596E2,0E0,0E0,7.527832E1,1.9101904E3,9.3338477E2,1.3152368E2,2.7479553E1,9.165918E1,0E0,0E0,6.911631E2,3.5782318E2,0E0,0E0,0E0,0E0,0E0,0E0,0E0,0E0,0E0,0E0,0E0,0E0],"parents":[2147483647,0,0,1,1,2,2,3,3,4,4,6,6,7,7,8,8,11,11,12,12,13,13,14,14,15,15,16,16,19,19,20,20],"right_children":[2,4,6,8,10,-1,12,14,16,-1,-1,18,20,22,24,26,28,-1,-1,30,32,-1,-1,-1,-1,-1,-1,-1,-1,-1,-1,-1,-1],"split_conditions":[1.9025634E-1,5.103272E-1,2.5483724E-1,4.1012898E-1,5.716945E-1,-1.4100112E-2,6.771501E-2,2.8103483E-1,-1.0686E0,8.238555E-3,6.2055574E-3,4.6942335E-2,1.7994678E0,-3.5001582E-1,-2.3216525E-1,5.1832235E-1,-6.6521317E-1,-1.1104677E-2,-8.21879E-3,1.580658E-1,2.7018377E-1,4.5097787E-3,8.205561E-4,2.2403102E-3,5.0622044E-4,2.8060006E-3,4.7991434E-3,1.6292309E-3,6.122914E-4,-4.3639787E-3,-2.5646433E-3,1.3854892E-3,-1.1616923E-3],"split_indices":[8,7,6,7,3,0,5,6,10,0,0,3,8,8,0,3,8,0,0,5,6,0,0,0,0,0,0,0,0,0,0,0,0],"split_type":[0,0,0,0,0,0,0,0,0,0,0,0,0,0,0,0,0,0,0,0,0,0,0,0,0,0,0,0,0,0,0,0,0],"sum_hessian":[2.89E3,1.6E3,1.29E3,1.508E3,9.2E1,8.5E1,1.205E3,1.072E3,4.36E2,6.6E1,2.6E1,8.6E1,1.119E3,8.28E2,2.44E2,4.5E1,3.91E2,5.2E1,3.4E1,8.67E2,2.52E2,7.52E2,7.6E1,1.86E2,5.8E1,1.7E1,2.8E1,1.37E2,2.54E2,4.39E2,4.28E2,8E1,1.72E2],"tree_param":{"num_deleted":"0","num_feature":"13","num_nodes":"33","size_leaf_vector":"1"}},{"base_weights":[2.8762302E-5,3.243517E0,-4.0222983E0,2.9649055E0,7.729336E0,-1.4086175E-2,-3.301307E0,3.638352E0,1.304555E0,8.23044E-3,6.1995825E-3,-1.0061479E1,-2.7732391E0,3.336285E0,6.861355E0,4.1195893E0,9.7089154E-1,-1.1149017E-2,-8.290508E-3,-3.476231E0,-3.5043135E-1,2.9745142E-3,6.7260726E-3,5.092221E-3,7.6905373E-3,2.8033508E-3,4.79451E-3,1.6276139E-3,6.1168155E-4,-4.359625E-3,-2.5620838E-3,1.3841216E-3,-1.1605376E-3],"categories":[],"categories_nodes":[],"categories_segments":[],"categories_sizes":[],"default_left":[0,0,0,0,0,0,0,0,0,0,0,0,0,0,0,0,0,0,0,0,0,0,0,0,0,0,0,0,0,0,0,0,0],"id":15,"left_children":[1,3,5,7,9,-1,11,13,15,-1,-1,17,19,21,23,25,27,-1,-1,29,31,-1,-1,-1,-1,-1,-1,-1,-1,-1,-1,-1,-1],"loss_changes":[3.77301E4,1.9780137E3,9.320951E3,1.6825527E3,2.0265625E1,0E0,4.2773135E3,1.0217412E3,4.0646313E2,0E0,0E0,7.513086E1,1.9063828E3,1.1854717E3,9.43291E1,2.7423645E1,9.147772E1,0E0,0E0,6.8978516E2,3.5711484E2,0E0,0E0,0E0,0E0,0E0,0E0,0E0,0E0,0E0,0E0,0E0,0E0],"parents":[2147483647,0,0,1,1,2,2,3,3,4,4,6,6,7,7,8,8,11,11,12,12,13,13,14,14,15,15,16,16,19,19,20,20],"right_children":[2,4,6,8,10,-1,12,14,16,-1,-1,18,20,22,24,26,28,-1,-1,30,32,-1,-1,-1,-1,-1,-1,-1,-1,-1,-1,-1,-1],"split_conditions":[1.9025634E-1,5.103272E-1,2.5483724E-1,4.1012898E-1,5.716945E-1,-1.4086175E-2,6.771501E-2,4.2315504E-1,-1.0686E0,8.23044E-3,6.1995825E-3,4.399609E-2,1.7994678E0,1.3281873E-1,-2.4417807E-1,5.1832235E-1,-6.6521317E-1,-1.1149017E-2,-8.290508E-3,1.580658E-1,2.7018377E-1,2.9745142E-3,6.7260726E-3,5.092221E-3,7.6905373E-3,2.8033508E-3,4.79451E-3,1.6276139E-3,6.1168155E-4,-4.359625E-3,-2.5620838E-3,1.3841216E-3,-1.1605376E-3],"split_indices":[8,7,6,7,3,0,5,5,10,0,0,3,8,12,0,3,8,0,0,5,6,0,0,0,0,0,0,0,0,0,0,0,0],"split_type":[0,0,0,0,0,0,0,0,0,0,0,0,0,0,0,0,0,0,0,0,0,0,0,0,0,0,0,0,0,0,0,0,0],"sum_hessian":[2.89E3,1.6E3,1.29E3,1.508E3,9.2E1,8.5E1,1.205E3,1.072E3,4.36E2,6.6E1,2.6E1,8.6E1,1.119E3,9.82E2,9E1,4.5E1,3.91E2,5E1,3.6E1,8.67E2,2.52E2,8.89E2,9.3E1,3.1E1,5.9E1,1.7E1,2.8E1,1.37E2,2.54E2,4.39E2,4.28E2,8E1,1.72E2],"tree_param":{"num_deleted":"0","num_feature":"13","num_nodes":"33","size_leaf_vector":"1"}},{"base_weights":[3.0634685E-5,3.240302E0,-4.0183077E0,2.9619613E0,7.7217617E0,-1.4072253E-2,-3.2980275E0,3.634734E0,1.3032728E0,8.222333E-3,6.1936127E-3,-1.00516405E1,-2.7704718E0,4.16458E0,1.8270729E0,4.115634E0,9.6992624E-1,-1.1082951E-2,-8.202752E-3,-3.4727628E0,-3.5008082E-1,4.5013847E-3,8.1680977E-4,2.2351216E-3,5.0279853E-4,2.8007028E-3,4.7898805E-3,1.6259986E-3,6.1107165E-4,-4.355274E-3,-2.5595282E-3,1.3827541E-3,-1.1593845E-3],"categories":[],"categories_nodes":[],"categories_segments":[],"categories_sizes":[],"default_left":[0,0,0,0,0,0,0,0,0,0,0,0,0,0,0,0,0,0,0,0,0,0,0,0,0,0,0,0,0,0,0,0,0],"id":16,"left_children":[1,3,5,7,9,-1,11,13,15,-1,-1,17,19,21,23,25,27,-1,-1,29,31,-1,-1,-1,-1,-1,-1,-1,-1,-1,-1,-1,-1],"loss_changes":[3.7655305E4,1.9741738E3,9.302566E3,1.6791846E3,2.0213867E1,0E0,4.2690186E3,1.0200908E3,4.056919E2,0E0,0E0,7.497949E1,1.902581E3,9.3105664E2,1.3126642E2,2.7368042E1,9.129672E1,0E0,0E0,6.884072E2,3.5640768E2,0E0,0E0,0E0,0E0,0E0,0E0,0E0,0E0,0E0,0E0,0E0,0E0],"parents":[2147483647,0,0,1,1,2,2,3,3,4,4,6,6,7,7,8,8,11,11,12,12,13,13,14,14,15,15,16,16,19,19,20,20],"right_children":[2,4,6,8,10,-1,12,14,16,-1,-1,18,20,22,24,26,28,-1,-1,30,32,-1,-1,-1,-1,-1,-1,-1,-1,-1,-1,-1,-1],"split_conditions":[1.9025634E-1,5.103272E-1,2.5483724E-1,4.1012898E-1,5.716945E-1,-1.4072253E-2,6.771501E-2,2.8103483E-1,-1.0686E0,8.222333E-3,6.1936127E-3,4.6942335E-2,1.7994678E0,-3.5001582E-1,-2.3216525E-1,5.1832235E-1,-6.6521317E-1,-1.1082951E-2,-8.202752E-3,1.580658E-1,2.7018377E-1,4.5013847E-3,8.1680977E-4,2.2351216E-3,5.0279853E-4,2.8007028E-3,4.7898805E-3,1.6259986E-3,6.1107165E-4,-4.355274E-3,-2.5595282E-3,1.3827541E-3,-1.1593845E-3],"split_indices":[8,7,6,7,3,0,5,6,10,0,0,3,8,8,0,3,8,0,0,5,6,0,0,0,0,0,0,0,0,0,0,0,0],"split_type":[0,0,0,0,0,0,0,0,0,0,0,0,0,0,0,0,0,0,0,0,0,0,0,0,0,0,0,0,0,0,0,0,0],"sum_hessian":[2.89E3,1.6E3,1.29E3,1.508E3,9.2E1,8.5E1,1.205E3,1.072E3,4.36E2,6.6E1,2.6E1,8.6E1,1.119E3,8.28E2,2.44E2,4.5E1,3.91E2,5.2E1,3.4E1,8.67E2,2.52E2,7.52E2,7.6E1,1.86E2,5.8E1,1.7E1,2.8E1,1.37E2,2.54E2,4.39E2,4.28E2,8E1,1.72E2],"tree_param":{"num_deleted":"0","num_feature":"13","num_nodes":"33","size_leaf_vector":"1"}},{"base_weights":[2.7967299E-5,3.237082E0,-4.0143204E0,2.9590113E0,7.7141953E0,-1.4058345E-2,-3.2947512E0,3.6311066E0,1.3019929E0,8.214233E-3,6.187649E-3,-1.004181E1,-2.7677076E0,3.3294108E0,6.850182E0,4.1116843E0,9.689628E-1,-1.11272205E-2,-8.274303E-3,-3.4692984E0,-3.497297E-1,2.9680945E-3,6.7149657E-3,5.082927E-3,7.678549E-3,2.7980583E-3,4.785256E-3,1.6243855E-3,6.104637E-4,-4.3509295E-3,-2.5569745E-3,1.3813883E-3,-1.1582315E-3],"categories":[],"categories_nodes":[],"categories_segments":[],"categories_sizes":[],"default_left":[0,0,0,0,0,0,0,0,0,0,0,0,0,0,0,0,0,0,0,0,0,0,0,0,0,0,0,0,0,0,0,0,0],"id":17,"left_children":[1,3,5,7,9,-1,11,13,15,-1,-1,17,19,21,23,25,27,-1,-1,29,31,-1,-1,-1,-1,-1,-1,-1,-1,-1,-1,-1,-1],"loss_changes":[3.7580566E4,1.9703418E3,9.284213E3,1.6758076E3,2.0163086E1,0E0,4.2607363E3,1.0192715E3,4.0492194E2,0E0,0E0,7.483789E1,1.8987891E3,1.1825293E3,9.4188965E1,2.7312317E1,9.111603E1,0E0,0E0,6.8703516E2,3.5570178E2,0E0,0E0,0E0,0E0,0E0,0E0,0E0,0E0,0E0,0E0,0E0,0E0],"parents":[2147483647,0,0,1,1,2,2,3,3,4,4,6,6,7,7,8,8,11,11,12,12,13,13,14,14,15,15,16,16,19,19,20,20],"right_children":[2,4,6,8,10,-1,12,14,16,-1,-1,18,20,22,24,26,28,-1,-1,30,32,-1,-1,-1,-1,-1,-1,-1,-1,-1,-1,-1,-1],"split_conditions":[1.9025634E-1,5.103272E-1,2.5483724E-1,4.1012898E-1,5.716945E-1,-1.4058345E-2,6.771501E-2,4.2315504E-1,-1.0686E0,8.214233E-3,6.187649E-3,4.399609E-2,1.7994678E0,1.3281873E-1,-2.4417807E-1,5.1832235E-1,-6.6521317E-1,-1.11272205E-2,-8.274303E-3,1.580658E-1,2.7018377E-1,2.9680945E-3,6.7149657E-3,5.082927E-3,7.678549E-3,2.7980583E-3,4.785256E-3,1.6243855E-3,6.104637E-4,-4.3509295E-3,-2.5569745E-3,1.3813883E-3,-1.1582315E-3],"split_indices":[8,7,6,7,3,0,5,5,10,0,0,3,8,12,0,3,8,0,0,5,6,0,0,0,0,0,0,0,0,0,0,0,0],"split_type":[0,0,0,0,0,0,0,0,0,0,0,0,0,0,0,0,0,0,0,0,0,0,0,0,0,0,0,0,0,0,0,0,0],"sum_hessian":[2.89E3,1.6E3,1.29E3,1.508E3,9.2E1,8.5E1,1.205E3,1.072E3,4.36E2,6.6E1,2.6E1,8.6E1,1.119E3,9.82E2,9E1,4.5E1,3.91E2,5E1,3.6E1,8.67E2,2.52E2,8.89E2,9.3E1,3.1E1,5.9E1,1.7E1,2.8E1,1.37E2,2.54E2,4.39E2,4.28E2,8E1,1.72E2],"tree_param":{"num_deleted":"0","num_feature":"13","num_nodes":"33","size_leaf_vector":"1"}},{"base_weights":[3.0281057E-5,3.233874E0,-4.010337E0,2.9560738E0,7.7066355E0,-1.4044449E-2,-3.291478E0,3.6274965E0,1.3007132E0,8.206141E-3,6.181691E-3,-1.0031991E1,-2.7649457E0,4.1566224E0,1.8223008E0,4.107737E0,9.6799934E-1,-1.114448E-2,-8.304191E-3,-3.4658368E0,-3.4937924E-1,4.493006E-3,8.1307476E-4,2.2299462E-3,4.9938593E-4,2.7954157E-3,4.7806357E-3,1.6227721E-3,6.0985575E-4,-4.3465886E-3,-2.5544227E-3,1.3800244E-3,-1.1570805E-3],"categories":[],"categories_nodes":[],"categories_segments":[],"categories_sizes":[],"default_left":[0,0,0,0,0,0,0,0,0,0,0,0,0,0,0,0,0,0,0,0,0,0,0,0,0,0,0,0,0,0,0,0,0],"id":18,"left_children":[1,3,5,7,9,-1,11,13,15,-1,-1,17,19,21,23,25,27,-1,-1,29,31,-1,-1,-1,-1,-1,-1,-1,-1,-1,-1,-1,-1],"loss_changes":[3.7506062E4,1.9665156E3,9.2659E3,1.6724551E3,2.0112305E1,0E0,4.2524746E3,1.0173291E3,4.0415363E2,0E0,0E0,7.468164E1,1.8950029E3,9.287344E2,1.3101007E2,2.7256836E1,9.093536E1,0E0,0E0,6.85667E2,3.5499768E2,0E0,0E0,0E0,0E0,0E0,0E0,0E0,0E0,0E0,0E0,0E0,0E0],"parents":[2147483647,0,0,1,1,2,2,3,3,4,4,6,6,7,7,8,8,11,11,12,12,13,13,14,14,15,15,16,16,19,19,20,20],"right_children":[2,4,6,8,10,-1,12,14,16,-1,-1,18,20,22,24,26,28,-1,-1,30,32,-1,-1,-1,-1,-1,-1,-1,-1,-1,-1,-1,-1],"split_conditions":[1.9025634E-1,5.103272E-1,2.5483724E-1,4.1012898E-1,5.716945E-1,-1.4044449E-2,6.771501E-2,2.8103483E-1,-1.0686E0,8.206141E-3,6.181691E-3,-6.275831E-2,1.7994678E0,-3.5001582E-1,-2.3216525E-1,5.1832235E-1,-6.6521317E-1,-1.114448E-2,-8.304191E-3,1.580658E-1,2.7018377E-1,4.493006E-3,8.1307476E-4,2.2299462E-3,4.9938593E-4,2.7954157E-3,4.7806357E-3,1.6227721E-3,6.0985575E-4,-4.3465886E-3,-2.5544227E-3,1.3800244E-3,-1.1570805E-3],"split_indices":[8,7,6,7,3,0,5,6,10,0,0,0,8,8,0,3,8,0,0,5,6,0,0,0,0,0,0,0,0,0,0,0,0],"split_type":[0,0,0,0,0,0,0,0,0,0,0,0,0,0,0,0,0,0,0,0,0,0,0,0,0,0,0,0,0,0,0,0,0],"sum_hessian":[2.89E3,1.6E3,1.29E3,1.508E3,9.2E1,8.5E1,1.205E3,1.072E3,4.36E2,6.6E1,2.6E1,8.6E1,1.119E3,8.28E2,2.44E2,4.5E1,3.91E2,4.9E1,3.7E1,8.67E2,2.52E2,7.52E2,7.6E1,1.86E2,5.8E1,1.7E1,2.8E1,1.37E2,2.54E2,4.39E2,4.28E2,8E1,1.72E2],"tree_param":{"num_deleted":"0","num_feature":"13","num_nodes":"33","size_leaf_vector":"1"}},{"base_weights":[2.7275217E-5,3.23066E0,-4.0063577E0,2.953129E0,7.699084E0,-1.4030567E-2,-3.2882082E0,3.623876E0,1.2994345E0,8.198058E-3,6.1757383E-3,-1.0022182E1,-2.7621868E0,3.322551E0,6.8390274E0,4.103794E0,9.670366E-1,-1.1050493E-2,-8.178678E-3,-3.462379E0,-3.490288E-1,2.9616891E-3,6.7038755E-3,5.07365E-3,7.666579E-3,2.7927747E-3,4.7760205E-3,1.6211607E-3,6.0924777E-4,-4.342252E-3,-2.5518748E-3,1.3786606E-3,-1.1559295E-3],"categories":[],"categories_nodes":[],"categories_segments":[],"categories_sizes":[],"default_left":[0,0,0,0,0,0,0,0,0,0,0,0,0,0,0,0,0,0,0,0,0,0,0,0,0,0,0,0,0,0,0,0,0],"id":19,"left_children":[1,3,5,7,9,-1,11,13,15,-1,-1,17,19,21,23,25,27,-1,-1,29,31,-1,-1,-1,-1,-1,-1,-1,-1,-1,-1,-1,-1],"loss_changes":[3.7431617E4,1.9627051E3,9.247621E3,1.6690898E3,2.0061523E1,0E0,4.2442275E3,1.01680566E3,4.033869E2,0E0,0E0,7.454785E1,1.8912256E3,1.1795918E3,9.404834E1,2.7201477E1,9.075531E1,0E0,0E0,6.842988E2,3.542942E2,0E0,0E0,0E0,0E0,0E0,0E0,0E0,0E0,0E0,0E0,0E0,0E0],"parents":[2147483647,0,0,1,1,2,2,3,3,4,4,6,6,7,7,8,8,11,11,12,12,13,13,14,14,15,15,16,16,19,19,20,20],"right_children":[2,4,6,8,10,-1,12,14,16,-1,-1,18,20,22,24,26,28,-1,-1,30,32,-1,-1,-1,-1,-1,-1,-1,-1,-1,-1,-1,-1],"split_conditions":[1.9025634E-1,5.103272E-1,2.5483724E-1,4.1012898E-1,5.716945E-1,-1.4030567E-2,6.771501E-2,4.2315504E-1,-1.0686E0,8.198058E-3,6.1757383E-3,4.6942335E-2,1.7994678E0,1.3281873E-1,-2.4417807E-1,5.1832235E-1,-6.6521317E-1,-1.1050493E-2,-8.178678E-3,1.580658E-1,2.7018377E-1,2.9616891E-3,6.7038755E-3,5.07365E-3,7.666579E-3,2.7927747E-3,4.7760205E-3,1.6211607E-3,6.0924777E-4,-4.342252E-3,-2.5518748E-3,1.3786606E-3,-1.1559295E-3],"split_indices":[8,7,6,7,3,0,5,5,10,0,0,3,8,12,0,3,8,0,0,5,6,0,0,0,0,0,0,0,0,0,0,0,0],"split_type":[0,0,0,0,0,0,0,0,0,0,0,0,0,0,0,0,0,0,0,0,0,0,0,0,0,0,0,0,0,0,0,0,0],"sum_hessian":[2.89E3,1.6E3,1.29E3,1.508E3,9.2E1,8.5E1,1.205E3,1.072E3,4.36E2,6.6E1,2.6E1,8.6E1,1.119E3,9.82E2,9E1,4.5E1,3.91E2,5.2E1,3.4E1,8.67E2,2.52E2,8.89E2,9.3E1,3.1E1,5.9E1,1.7E1,2.8E1,1.37E2,2.54E2,4.39E2,4.28E2,8E1,1.72E2],"tree_param":{"num_deleted":"0","num_feature":"13","num_nodes":"33","size_leaf_vector":"1"}},{"base_weights":[2.9633178E-5,3.2274585E0,-4.002382E0,2.9501972E0,7.6915393E0,-1.4016701E-2,-3.2849412E0,3.6202726E0,1.2981579E0,8.189983E-3,6.169791E-3,-1.0012381E1,-2.7594302E0,3.3192377E0,6.8323293E0,4.0998554E0,9.660757E-1,-1.1122728E-2,-8.287915E-3,-3.458924E0,-3.4867907E-1,2.9587303E-3,6.697242E-3,5.0687343E-3,7.6590413E-3,2.7901377E-3,4.771409E-3,1.6195512E-3,6.086417E-4,-4.3379185E-3,-2.5493286E-3,1.3772985E-3,-1.1547803E-3],"categories":[],"categories_nodes":[],"categories_segments":[],"categories_sizes":[],"default_left":[0,0,0,0,0,0,0,0,0,0,0,0,0,0,0,0,0,0,0,0,0,0,0,0,0,0,0,0,0,0,0,0,0],"id":20,"left_children":[1,3,5,7,9,-1,11,13,15,-1,-1,17,19,21,23,25,27,-1,-1,29,31,-1,-1,-1,-1,-1,-1,-1,-1,-1,-1,-1,-1],"loss_changes":[3.7357406E4,1.9588906E3,9.229379E3,1.665749E3,2.0010254E1,0E0,4.235996E3,1.0148506E3,4.0262134E2,0E0,0E0,7.4399414E1,1.8874551E3,1.1772773E3,9.385498E1,2.714618E1,9.057544E1,0E0,0E0,6.829326E2,3.5359253E2,0E0,0E0,0E0,0E0,0E0,0E0,0E0,0E0,0E0,0E0,0E0,0E0],"parents":[2147483647,0,0,1,1,2,2,3,3,4,4,6,6,7,7,8,8,11,11,12,12,13,13,14,14,15,15,16,16,19,19,20,20],"right_children":[2,4,6,8,10,-1,12,14,16,-1,-1,18,20,22,24,26,28,-1,-1,30,32,-1,-1,-1,-1,-1,-1,-1,-1,-1,-1,-1,-1],"split_conditions":[1.9025634E-1,5.103272E-1,2.5483724E-1,4.1012898E-1,5.716945E-1,-1.4016701E-2,6.771501E-2,4.2315504E-1,-1.0686E0,8.189983E-3,6.169791E-3,-6.275831E-2,1.7994678E0,1.3281873E-1,-2.4417807E-1,5.1832235E-1,-6.6521317E-1,-1.1122728E-2,-8.287915E-3,1.580658E-1,2.7018377E-1,2.9587303E-3,6.697242E-3,5.0687343E-3,7.6590413E-3,2.7901377E-3,4.771409E-3,1.6195512E-3,6.086417E-4,-4.3379185E-3,-2.5493286E-3,1.3772985E-3,-1.1547803E-3],"split_indices":[8,7,6,7,3,0,5,5,10,0,0,0,8,12,0,3,8,0,0,5,6,0,0,0,0,0,0,0,0,0,0,0,0],"split_type":[0,0,0,0,0,0,0,0,0,0,0,0,0,0,0,0,0,0,0,0,0,0,0,0,0,0,0,0,0,0,0,0,0],"sum_hessian":[2.89E3,1.6E3,1.29E3,1.508E3,9.2E1,8.5E1,1.205E3,1.072E3,4.36E2,6.6E1,2.6E1,8.6E1,1.119E3,9.82E2,9E1,4.5E1,3.91E2,4.9E1,3.7E1,8.67E2,2.52E2,8.89E2,9.3E1,3.1E1,5.9E1,1.7E1,2.8E1,1.37E2,2.54E2,4.39E2,4.28E2,8E1,1.72E2],"tree_param":{"num_deleted":"0","num_feature":"13","num_nodes":"33","size_leaf_vector":"1"}},{"base_weights":[3.198652E-5,3.2242603E0,-3.9984107E0,2.9472687E0,7.684002E0,-1.4002847E-2,-3.2816777E0,3.6166737E0,1.2968824E0,8.181915E-3,6.163849E-3,-1.0002591E1,-2.756677E0,4.144892E0,1.8145936E0,4.095919E0,9.6511555E-1,-1.1028898E-2,-8.162682E-3,-3.455473E0,-3.4833002E-1,4.4807713E-3,8.0642925E-4,2.2218397E-3,4.9307465E-4,2.7875022E-3,4.7668014E-3,1.6179436E-3,6.0803565E-4,-4.333591E-3,-2.5467845E-3,1.3759384E-3,-1.153633E-3],"categories":[],"categories_nodes":[],"categories_segments":[],"categories_sizes":[],"default_left":[0,0,0,0,0,0,0,0,0,0,0,0,0,0,0,0,0,0,0,0,0,0,0,0,0,0,0,0,0,0,0,0,0],"id":21,"left_children":[1,3,5,7,9,-1,11,13,15,-1,-1,17,19,21,23,25,27,-1,-1,29,31,-1,-1,-1,-1,-1,-1,-1,-1,-1,-1,-1,-1],"loss_changes":[3.728335E4,1.9550859E3,9.211172E3,1.662419E3,1.995996E1,0E0,4.2277793E3,1.0138584E3,4.0185718E2,0E0,0E0,7.425781E1,1.8836924E3,9.2595996E2,1.307594E2,2.7091003E1,9.039606E1,0E0,0E0,6.815713E2,3.528926E2,0E0,0E0,0E0,0E0,0E0,0E0,0E0,0E0,0E0,0E0,0E0,0E0],"parents":[2147483647,0,0,1,1,2,2,3,3,4,4,6,6,7,7,8,8,11,11,12,12,13,13,14,14,15,15,16,16,19,19,20,20],"right_children":[2,4,6,8,10,-1,12,14,16,-1,-1,18,20,22,24,26,28,-1,-1,30,32,-1,-1,-1,-1,-1,-1,-1,-1,-1,-1,-1,-1],"split_conditions":[1.9025634E-1,5.103272E-1,2.5483724E-1,4.1012898E-1,5.716945E-1,-1.4002847E-2,6.771501E-2,2.8103483E-1,-1.0686E0,8.181915E-3,6.163849E-3,4.6942335E-2,1.7994678E0,-3.5001582E-1,-2.3216525E-1,5.1832235E-1,-6.6521317E-1,-1.1028898E-2,-8.162682E-3,1.580658E-1,2.7018377E-1,4.4807713E-3,8.0642925E-4,2.2218397E-3,4.9307465E-4,2.7875022E-3,4.7668014E-3,1.6179436E-3,6.0803565E-4,-4.333591E-3,-2.5467845E-3,1.3759384E-3,-1.153633E-3],"split_indices":[8,7,6,7,3,0,5,6,10,0,0,3,8,8,0,3,8,0,0,5,6,0,0,0,0,0,0,0,0,0,0,0,0],"split_type":[0,0,0,0,0,0,0,0,0,0,0,0,0,0,0,0,0,0,0,0,0,0,0,0,0,0,0,0,0,0,0,0,0],"sum_hessian":[2.89E3,1.6E3,1.29E3,1.508E3,9.2E1,8.5E1,1.205E3,1.072E3,4.36E2,6.6E1,2.6E1,8.6E1,1.119E3,8.28E2,2.44E2,4.5E1,3.91E2,5.2E1,3.4E1,8.67E2,2.52E2,7.52E2,7.6E1,1.86E2,5.8E1,1.7E1,2.8E1,1.37E2,2.54E2,4.39E2,4.28E2,8E1,1.72E2],"tree_param":{"num_deleted":"0","num_feature":"13","num_nodes":"33","size_leaf_vector":"1"}},{"base_weights":[2.9301982E-5,3.2210562E0,-3.9944432E0,2.9443333E0,7.6764717E0,-1.3989006E-2,-3.2784176E0,3.6130648E0,1.2956078E0,8.173854E-3,6.1579132E-3,-9.992809E0,-2.7539263E0,3.3123996E0,6.821205E0,4.091988E0,9.6415603E-1,-1.1101019E-2,-8.271671E-3,-3.4520257E0,-3.4798035E-1,2.9523454E-3,6.686184E-3,5.059485E-3,7.647103E-3,2.7848703E-3,4.7621997E-3,1.6163378E-3,6.074296E-4,-4.329268E-3,-2.5442443E-3,1.3745802E-3,-1.1524856E-3],"categories":[],"categories_nodes":[],"categories_segments":[],"categories_sizes":[],"default_left":[0,0,0,0,0,0,0,0,0,0,0,0,0,0,0,0,0,0,0,0,0,0,0,0,0,0,0,0,0,0,0,0,0],"id":22,"left_children":[1,3,5,7,9,-1,11,13,15,-1,-1,17,19,21,23,25,27,-1,-1,29,31,-1,-1,-1,-1,-1,-1,-1,-1,-1,-1,-1,-1],"loss_changes":[3.7209348E4,1.9512949E3,9.193002E3,1.6590732E3,1.990918E1,0E0,4.21958E3,1.0123965E3,4.010948E2,0E0,0E0,7.4118164E1,1.8799385E3,1.1743535E3,9.371484E1,2.703595E1,9.021716E1,0E0,0E0,6.802119E2,3.5219385E2,0E0,0E0,0E0,0E0,0E0,0E0,0E0,0E0,0E0,0E0,0E0,0E0],"parents":[2147483647,0,0,1,1,2,2,3,3,4,4,6,6,7,7,8,8,11,11,12,12,13,13,14,14,15,15,16,16,19,19,20,20],"right_children":[2,4,6,8,10,-1,12,14,16,-1,-1,18,20,22,24,26,28,-1,-1,30,32,-1,-1,-1,-1,-1,-1,-1,-1,-1,-1,-1,-1],"split_conditions":[1.9025634E-1,5.103272E-1,2.5483724E-1,4.1012898E-1,5.716945E-1,-1.3989006E-2,6.771501E-2,4.2315504E-1,-1.0686E0,8.173854E-3,6.1579132E-3,-6.275831E-2,1.7994678E0,1.3281873E-1,-2.4417807E-1,5.1832235E-1,-6.6521317E-1,-1.1101019E-2,-8.271671E-3,1.580658E-1,2.7018377E-1,2.9523454E-3,6.686184E-3,5.059485E-3,7.647103E-3,2.7848703E-3,4.7621997E-3,1.6163378E-3,6.074296E-4,-4.329268E-3,-2.5442443E-3,1.3745802E-3,-1.1524856E-3],"split_indices":[8,7,6,7,3,0,5,5,10,0,0,0,8,12,0,3,8,0,0,5,6,0,0,0,0,0,0,0,0,0,0,0,0],"split_type":[0,0,0,0,0,0,0,0,0,0,0,0,0,0,0,0,0,0,0,0,0,0,0,0,0,0,0,0,0,0,0,0,0],"sum_hessian":[2.89E3,1.6E3,1.29E3,1.508E3,9.2E1,8.5E1,1.205E3,1.072E3,4.36E2,6.6E1,2.6E1,8.6E1,1.119E3,9.82E2,9E1,4.5E1,3.91E2,4.9E1,3.7E1,8.67E2,2.52E2,8.89E2,9.3E1,3.1E1,5.9E1,1.7E1,2.8E1,1.37E2,2.54E2,4.39E2,4.28E2,8E1,1.72E2],"tree_param":{"num_deleted":"0","num_feature":"13","num_nodes":"33","size_leaf_vector":"1"}},{"base_weights":[3.161574E-5,3.2178643E0,-3.9904797E0,2.9414105E0,7.6689496E0,-1.3975181E-2,-3.2751608E0,3.6094723E0,1.2943354E0,8.165804E-3,6.151982E-3,-9.983039E0,-2.751178E0,4.1369734E0,1.809849E0,4.08806E0,9.631984E-1,-1.1062117E-2,-8.225851E-3,-3.4485812E0,-3.47632E-1,4.472432E-3,8.027187E-4,2.2166928E-3,4.896865E-4,2.7822403E-3,4.757601E-3,1.6147342E-3,6.0682546E-4,-4.3249475E-3,-2.5417057E-3,1.373222E-3,-1.1513403E-3],"categories":[],"categories_nodes":[],"categories_segments":[],"categories_sizes":[],"default_left":[0,0,0,0,0,0,0,0,0,0,0,0,0,0,0,0,0,0,0,0,0,0,0,0,0,0,0,0,0,0,0,0,0],"id":23,"left_children":[1,3,5,7,9,-1,11,13,15,-1,-1,17,19,21,23,25,27,-1,-1,29,31,-1,-1,-1,-1,-1,-1,-1,-1,-1,-1,-1,-1],"loss_changes":[3.7135586E4,1.9475039E3,9.174867E3,1.6557539E3,1.9858887E1,0E0,4.2113984E3,1.01111426E3,4.003333E2,0E0,0E0,7.396973E1,1.8761895E3,9.236504E2,1.3050397E2,2.6981018E1,9.003848E1,0E0,0E0,6.7885645E2,3.5149637E2,0E0,0E0,0E0,0E0,0E0,0E0,0E0,0E0,0E0,0E0,0E0,0E0],"parents":[2147483647,0,0,1,1,2,2,3,3,4,4,6,6,7,7,8,8,11,11,12,12,13,13,14,14,15,15,16,16,19,19,20,20],"right_children":[2,4,6,8,10,-1,12,14,16,-1,-1,18,20,22,24,26,28,-1,-1,30,32,-1,-1,-1,-1,-1,-1,-1,-1,-1,-1,-1,-1],"split_conditions":[1.9025634E-1,5.103272E-1,2.5483724E-1,4.1012898E-1,5.716945E-1,-1.3975181E-2,6.771501E-2,2.8103483E-1,-1.0686E0,8.165804E-3,6.151982E-3,4.399609E-2,1.7994678E0,-3.5001582E-1,-2.3216525E-1,5.1832235E-1,-6.6521317E-1,-1.1062117E-2,-8.225851E-3,1.580658E-1,2.7018377E-1,4.472432E-3,8.027187E-4,2.2166928E-3,4.896865E-4,2.7822403E-3,4.757601E-3,1.6147342E-3,6.0682546E-4,-4.3249475E-3,-2.5417057E-3,1.373222E-3,-1.1513403E-3],"split_indices":[8,7,6,7,3,0,5,6,10,0,0,3,8,8,0,3,8,0,0,5,6,0,0,0,0,0,0,0,0,0,0,0,0],"split_type":[0,0,0,0,0,0,0,0,0,0,0,0,0,0,0,0,0,0,0,0,0,0,0,0,0,0,0,0,0,0,0,0,0],"sum_hessian":[2.89E3,1.6E3,1.29E3,1.508E3,9.2E1,8.5E1,1.205E3,1.072E3,4.36E2,6.6E1,2.6E1,8.6E1,1.119E3,8.28E2,2.44E2,4.5E1,3.91E2,5E1,3.6E1,8.67E2,2.52E2,7.52E2,7.6E1,1.86E2,5.8E1,1.7E1,2.8E1,1.37E2,2.54E2,4.39E2,4.28E2,8E1,1.72E2],"tree_param":{"num_deleted":"0","num_feature":"13","num_nodes":"33","size_leaf_vector":"1"}},{"base_weights":[2.911593E-5,3.2146664E0,-3.9865193E0,2.9384806E0,7.661435E0,-1.3961367E-2,-3.2719064E0,3.60587E0,1.2930633E0,8.15776E-3,6.146059E-3,-9.973277E0,-2.7484322E0,3.3055742E0,6.8101E0,4.084136E0,9.622408E-1,-1.09966E-2,-8.138725E-3,-3.44514E0,-3.4728304E-1,2.945973E-3,6.675145E-3,5.05025E-3,7.635186E-3,2.779612E-3,4.753008E-3,1.6131303E-3,6.0622126E-4,-4.3206317E-3,-2.5391693E-3,1.3718656E-3,-1.1501949E-3],"categories":[],"categories_nodes":[],"categories_segments":[],"categories_sizes":[],"default_left":[0,0,0,0,0,0,0,0,0,0,0,0,0,0,0,0,0,0,0,0,0,0,0,0,0,0,0,0,0,0,0,0,0],"id":24,"left_children":[1,3,5,7,9,-1,11,13,15,-1,-1,17,19,21,23,25,27,-1,-1,29,31,-1,-1,-1,-1,-1,-1,-1,-1,-1,-1,-1,-1],"loss_changes":[3.7061867E4,1.9437285E3,9.15677E3,1.6524219E3,1.980957E1,0E0,4.2032305E3,1.00994727E3,3.995738E2,0E0,0E0,7.3831055E1,1.8724512E3,1.1714385E3,9.357471E1,2.692627E1,8.9859985E1,0E0,0E0,6.775E2,3.508001E2,0E0,0E0,0E0,0E0,0E0,0E0,0E0,0E0,0E0,0E0,0E0,0E0],"parents":[2147483647,0,0,1,1,2,2,3,3,4,4,6,6,7,7,8,8,11,11,12,12,13,13,14,14,15,15,16,16,19,19,20,20],"right_children":[2,4,6,8,10,-1,12,14,16,-1,-1,18,20,22,24,26,28,-1,-1,30,32,-1,-1,-1,-1,-1,-1,-1,-1,-1,-1,-1,-1],"split_conditions":[1.9025634E-1,5.103272E-1,2.5483724E-1,4.1012898E-1,5.716945E-1,-1.3961367E-2,6.771501E-2,4.2315504E-1,-1.0686E0,8.15776E-3,6.146059E-3,4.6942335E-2,1.7994678E0,1.3281873E-1,-2.4417807E-1,5.1832235E-1,-6.6521317E-1,-1.09966E-2,-8.138725E-3,1.580658E-1,2.7018377E-1,2.945973E-3,6.675145E-3,5.05025E-3,7.635186E-3,2.779612E-3,4.753008E-3,1.6131303E-3,6.0622126E-4,-4.3206317E-3,-2.5391693E-3,1.3718656E-3,-1.1501949E-3],"split_indices":[8,7,6,7,3,0,5,5,10,0,0,3,8,12,0,3,8,0,0,5,6,0,0,0,0,0,0,0,0,0,0,0,0],"split_type":[0,0,0,0,0,0,0,0,0,0,0,0,0,0,0,0,0,0,0,0,0,0,0,0,0,0,0,0,0,0,0,0,0],"sum_hessian":[2.89E3,1.6E3,1.29E3,1.508E3,9.2E1,8.5E1,1.205E3,1.072E3,4.36E2,6.6E1,2.6E1,8.6E1,1.119E3,9.82E2,9E1,4.5E1,3.91E2,5.2E1,3.4E1,8.67E2,2.52E2,8.89E2,9.3E1,3.1E1,5.9E1,1.7E1,2.8E1,1.37E2,2.54E2,4.39E2,4.28E2,8E1,1.72E2],"tree_param":{"num_deleted":"0","num_feature":"13","num_nodes":"33","size_leaf_vector":"1"}},{"base_weights":[3.0906504E-5,3.21148E0,-3.982564E0,2.9355628E0,7.653928E0,-1.3947568E-2,-3.2686563E0,3.6022842E0,1.2917922E0,8.149724E-3,6.140141E-3,-9.963524E0,-2.7456899E0,4.1290684E0,1.8051156E0,4.0802155E0,9.6128386E-1,-1.1068523E-2,-8.247382E-3,-3.441703E0,-3.4693477E-1,4.464108E-3,7.9901755E-4,2.2115572E-3,4.8630766E-4,2.7769874E-3,4.748419E-3,1.6115283E-3,6.056171E-4,-4.316321E-3,-2.5366363E-3,1.3705111E-3,-1.1490515E-3],"categories":[],"categories_nodes":[],"categories_segments":[],"categories_sizes":[],"default_left":[0,0,0,0,0,0,0,0,0,0,0,0,0,0,0,0,0,0,0,0,0,0,0,0,0,0,0,0,0,0,0,0,0],"id":25,"left_children":[1,3,5,7,9,-1,11,13,15,-1,-1,17,19,21,23,25,27,-1,-1,29,31,-1,-1,-1,-1,-1,-1,-1,-1,-1,-1,-1,-1],"loss_changes":[3.698839E4,1.9399531E3,9.138707E3,1.6491152E3,1.975879E1,0E0,4.195076E3,1.00837695E3,3.9881573E2,0E0,0E0,7.3694336E1,1.8687188E3,9.2134863E2,1.3024896E2,2.687146E1,8.968204E1,0E0,0E0,6.761494E2,3.5010553E2,0E0,0E0,0E0,0E0,0E0,0E0,0E0,0E0,0E0,0E0,0E0,0E0],"parents":[2147483647,0,0,1,1,2,2,3,3,4,4,6,6,7,7,8,8,11,11,12,12,13,13,14,14,15,15,16,16,19,19,20,20],"right_children":[2,4,6,8,10,-1,12,14,16,-1,-1,18,20,22,24,26,28,-1,-1,30,32,-1,-1,-1,-1,-1,-1,-1,-1,-1,-1,-1,-1],"split_conditions":[1.9025634E-1,5.103272E-1,2.5483724E-1,4.1012898E-1,5.716945E-1,-1.3947568E-2,6.771501E-2,2.8103483E-1,-1.0686E0,8.149724E-3,6.140141E-3,-6.275831E-2,1.7994678E0,-3.5001582E-1,-2.3216525E-1,5.1832235E-1,-6.6521317E-1,-1.1068523E-2,-8.247382E-3,1.580658E-1,2.7018377E-1,4.464108E-3,7.9901755E-4,2.2115572E-3,4.8630766E-4,2.7769874E-3,4.748419E-3,1.6115283E-3,6.056171E-4,-4.316321E-3,-2.5366363E-3,1.3705111E-3,-1.1490515E-3],"split_indices":[8,7,6,7,3,0,5,6,10,0,0,0,8,8,0,3,8,0,0,5,6,0,0,0,0,0,0,0,0,0,0,0,0],"split_type":[0,0,0,0,0,0,0,0,0,0,0,0,0,0,0,0,0,0,0,0,0,0,0,0,0,0,0,0,0,0,0,0,0],"sum_hessian":[2.89E3,1.6E3,1.29E3,1.508E3,9.2E1,8.5E1,1.205E3,1.072E3,4.36E2,6.6E1,2.6E1,8.6E1,1.119E3,8.28E2,2.44E2,4.5E1,3.91E2,4.9E1,3.7E1,8.67E2,2.52E2,7.52E2,7.6E1,1.86E2,5.8E1,1.7E1,2.8E1,1.37E2,2.54E2,4.39E2,4.28E2,8E1,1.72E2],"tree_param":{"num_deleted":"0","num_feature":"13","num_nodes":"33","size_leaf_vector":"1"}},{"base_weights":[2.8301794E-5,3.208289E0,-3.9786124E0,2.9326394E0,7.646427E0,-1.3933782E-2,-3.2654092E0,3.5986903E0,1.290522E0,8.1416955E-3,6.1342283E-3,-9.953783E0,-2.7429502E0,3.298763E0,6.799015E0,4.076298E0,9.6032757E-1,-1.1057676E-2,-8.239351E-3,-3.4382691E0,-3.465878E-1,2.9396142E-3,6.6641243E-3,5.041033E-3,7.6232892E-3,2.7743645E-3,4.7438336E-3,1.6099283E-3,6.05013E-4,-4.3120147E-3,-2.5341054E-3,1.3691568E-3,-1.1479099E-3],"categories":[],"categories_nodes":[],"categories_segments":[],"categories_sizes":[],"default_left":[0,0,0,0,0,0,0,0,0,0,0,0,0,0,0,0,0,0,0,0,0,0,0,0,0,0,0,0,0,0,0,0,0],"id":26,"left_children":[1,3,5,7,9,-1,11,13,15,-1,-1,17,19,21,23,25,27,-1,-1,29,31,-1,-1,-1,-1,-1,-1,-1,-1,-1,-1,-1,-1],"loss_changes":[3.691498E4,1.9361914E3,9.120676E3,1.6458008E3,1.9708984E1,0E0,4.1869453E3,1.00750586E3,3.9805896E2,0E0,0E0,7.3543945E1,1.8649932E3,1.1685283E3,9.343555E1,2.6816833E1,8.950452E1,0E0,0E0,6.747998E2,3.494122E2,0E0,0E0,0E0,0E0,0E0,0E0,0E0,0E0,0E0,0E0,0E0,0E0],"parents":[2147483647,0,0,1,1,2,2,3,3,4,4,6,6,7,7,8,8,11,11,12,12,13,13,14,14,15,15,16,16,19,19,20,20],"right_children":[2,4,6,8,10,-1,12,14,16,-1,-1,18,20,22,24,26,28,-1,-1,30,32,-1,-1,-1,-1,-1,-1,-1,-1,-1,-1,-1,-1],"split_conditions":[1.9025634E-1,5.103272E-1,2.5483724E-1,4.1012898E-1,5.716945E-1,-1.3933782E-2,6.771501E-2,4.2315504E-1,-1.0686E0,8.1416955E-3,6.1342283E-3,-6.275831E-2,1.7994678E0,1.3281873E-1,-2.4417807E-1,5.1832235E-1,-6.6521317E-1,-1.1057676E-2,-8.239351E-3,1.580658E-1,2.7018377E-1,2.9396142E-3,6.6641243E-3,5.041033E-3,7.6232892E-3,2.7743645E-3,4.7438336E-3,1.6099283E-3,6.05013E-4,-4.3120147E-3,-2.5341054E-3,1.3691568E-3,-1.1479099E-3],"split_indices":[8,7,6,7,3,0,5,5,10,0,0,0,8,12,0,3,8,0,0,5,6,0,0,0,0,0,0,0,0,0,0,0,0],"split_type":[0,0,0,0,0,0,0,0,0,0,0,0,0,0,0,0,0,0,0,0,0,0,0,0,0,0,0,0,0,0,0,0,0],"sum_hessian":[2.89E3,1.6E3,1.29E3,1.508E3,9.2E1,8.5E1,1.205E3,1.072E3,4.36E2,6.6E1,2.6E1,8.6E1,1.119E3,9.82E2,9E1,4.5E1,3.91E2,4.9E1,3.7E1,8.67E2,2.52E2,8.89E2,9.3E1,3.1E1,5.9E1,1.7E1,2.8E1,1.37E2,2.54E2,4.39E2,4.28E2,8E1,1.72E2],"tree_param":{"num_deleted":"0","num_feature":"13","num_nodes":"33","size_leaf_vector":"1"}},{"base_weights":[3.0795003E-5,3.2051096E0,-3.9746642E0,2.929728E0,7.638934E0,-1.392001E-2,-3.2621648E0,3.5951126E0,1.2892541E0,8.133675E-3,6.128322E-3,-9.944051E0,-2.7402127E0,4.121181E0,1.800395E0,4.0723853E0,9.593732E-1,-1.0964422E-2,-8.114803E-3,-3.434838E0,-3.4624022E-1,4.455802E-3,7.953277E-4,2.2064347E-3,4.8294017E-4,2.7717436E-3,4.739254E-3,1.6083302E-3,6.044107E-4,-4.3077124E-3,-2.5315764E-3,1.3678041E-3,-1.1467682E-3],"categories":[],"categories_nodes":[],"categories_segments":[],"categories_sizes":[],"default_left":[0,0,0,0,0,0,0,0,0,0,0,0,0,0,0,0,0,0,0,0,0,0,0,0,0,0,0,0,0,0,0,0,0],"id":27,"left_children":[1,3,5,7,9,-1,11,13,15,-1,-1,17,19,21,23,25,27,-1,-1,29,31,-1,-1,-1,-1,-1,-1,-1,-1,-1,-1,-1,-1],"loss_changes":[3.6841797E4,1.9324297E3,9.102686E3,1.6425088E3,1.9658691E1,0E0,4.178825E3,1.00564746E3,3.9730353E2,0E0,0E0,7.341211E1,1.8612754E3,9.190498E2,1.299945E2,2.676233E1,8.932724E1,0E0,0E0,6.734541E2,3.487201E2,0E0,0E0,0E0,0E0,0E0,0E0,0E0,0E0,0E0,0E0,0E0,0E0],"parents":[2147483647,0,0,1,1,2,2,3,3,4,4,6,6,7,7,8,8,11,11,12,12,13,13,14,14,15,15,16,16,19,19,20,20],"right_children":[2,4,6,8,10,-1,12,14,16,-1,-1,18,20,22,24,26,28,-1,-1,30,32,-1,-1,-1,-1,-1,-1,-1,-1,-1,-1,-1,-1],"split_conditions":[1.9025634E-1,5.103272E-1,2.5483724E-1,4.1012898E-1,5.716945E-1,-1.392001E-2,6.771501E-2,2.8103483E-1,-1.0686E0,8.133675E-3,6.128322E-3,4.6942335E-2,1.7994678E0,-3.5001582E-1,-2.3216525E-1,5.1832235E-1,-6.6521317E-1,-1.0964422E-2,-8.114803E-3,1.580658E-1,2.7018377E-1,4.455802E-3,7.953277E-4,2.2064347E-3,4.8294017E-4,2.7717436E-3,4.739254E-3,1.6083302E-3,6.044107E-4,-4.3077124E-3,-2.5315764E-3,1.3678041E-3,-1.1467682E-3],"split_indices":[8,7,6,7,3,0,5,6,10,0,0,3,8,8,0,3,8,0,0,5,6,0,0,0,0,0,0,0,0,0,0,0,0],"split_type":[0,0,0,0,0,0,0,0,0,0,0,0,0,0,0,0,0,0,0,0,0,0,0,0,0,0,0,0,0,0,0,0,0],"sum_hessian":[2.89E3,1.6E3,1.29E3,1.508E3,9.2E1,8.5E1,1.205E3,1.072E3,4.36E2,6.6E1,2.6E1,8.6E1,1.119E3,8.28E2,2.44E2,4.5E1,3.91E2,5.2E1,3.4E1,8.67E2,2.52E2,7.52E2,7.6E1,1.86E2,5.8E1,1.7E1,2.8E1,1.37E2,2.54E2,4.39E2,4.28E2,8E1,1.72E2],"tree_param":{"num_deleted":"0","num_feature":"13","num_nodes":"33","size_leaf_vector":"1"}},{"base_weights":[2.7926395E-5,3.2019246E0,-3.9707208E0,2.9268103E0,7.6314487E0,-1.3906253E-2,-3.2589245E0,3.5915248E0,1.287987E0,8.125663E-3,6.1224205E-3,-9.934326E0,-2.737479E0,3.2919664E0,6.7879486E0,4.068476E0,9.5841944E-1,-1.1036094E-2,-8.223203E-3,-3.431412E0,-3.4589335E-1,2.9332691E-3,6.6531226E-3,5.031833E-3,7.6114116E-3,2.7691263E-3,4.7346773E-3,1.606734E-3,6.038085E-4,-4.303415E-3,-2.5290514E-3,1.3664535E-3,-1.1456286E-3],"categories":[],"categories_nodes":[],"categories_segments":[],"categories_sizes":[],"default_left":[0,0,0,0,0,0,0,0,0,0,0,0,0,0,0,0,0,0,0,0,0,0,0,0,0,0,0,0,0,0,0,0,0],"id":28,"left_children":[1,3,5,7,9,-1,11,13,15,-1,-1,17,19,21,23,25,27,-1,-1,29,31,-1,-1,-1,-1,-1,-1,-1,-1,-1,-1,-1,-1],"loss_changes":[3.676868E4,1.9286836E3,9.08473E3,1.6392041E3,1.9608887E1,0E0,4.170718E3,1.0050674E3,3.9654962E2,0E0,0E0,7.3265625E1,1.8575645E3,1.165627E3,9.329541E1,2.6708008E1,8.915042E1,0E0,0E0,6.721133E2,3.4802972E2,0E0,0E0,0E0,0E0,0E0,0E0,0E0,0E0,0E0,0E0,0E0,0E0],"parents":[2147483647,0,0,1,1,2,2,3,3,4,4,6,6,7,7,8,8,11,11,12,12,13,13,14,14,15,15,16,16,19,19,20,20],"right_children":[2,4,6,8,10,-1,12,14,16,-1,-1,18,20,22,24,26,28,-1,-1,30,32,-1,-1,-1,-1,-1,-1,-1,-1,-1,-1,-1,-1],"split_conditions":[1.9025634E-1,5.103272E-1,2.5483724E-1,4.1012898E-1,5.716945E-1,-1.3906253E-2,6.771501E-2,4.2315504E-1,-1.0686E0,8.125663E-3,6.1224205E-3,-6.275831E-2,1.7994678E0,1.3281873E-1,-2.4417807E-1,5.1832235E-1,-6.6521317E-1,-1.1036094E-2,-8.223203E-3,1.580658E-1,2.7018377E-1,2.9332691E-3,6.6531226E-3,5.031833E-3,7.6114116E-3,2.7691263E-3,4.7346773E-3,1.606734E-3,6.038085E-4,-4.303415E-3,-2.5290514E-3,1.3664535E-3,-1.1456286E-3],"split_indices":[8,7,6,7,3,0,5,5,10,0,0,0,8,12,0,3,8,0,0,5,6,0,0,0,0,0,0,0,0,0,0,0,0],"split_type":[0,0,0,0,0,0,0,0,0,0,0,0,0,0,0,0,0,0,0,0,0,0,0,0,0,0,0,0,0,0,0,0,0],"sum_hessian":[2.89E3,1.6E3,1.29E3,1.508E3,9.2E1,8.5E1,1.205E3,1.072E3,4.36E2,6.6E1,2.6E1,8.6E1,1.119E3,9.82E2,9E1,4.5E1,3.91E2,4.9E1,3.7E1,8.67E2,2.52E2,8.89E2,9.3E1,3.1E1,5.9E1,1.7E1,2.8E1,1.37E2,2.54E2,4.39E2,4.28E2,8E1,1.72E2],"tree_param":{"num_deleted":"0","num_feature":"13","num_nodes":"33","size_leaf_vector":"1"}},{"base_weights":[3.0021114E-5,3.1987514E0,-3.966781E0,2.9239044E0,7.623971E0,-1.3892507E-2,-3.255687E0,3.5879538E0,1.286721E0,8.117659E-3,6.1165243E-3,-9.924613E0,-2.7347474E0,3.288684E0,6.781299E0,4.064571E0,9.574664E-1,-1.0942996E-2,-8.098933E-3,-3.4279885E0,-3.4554586E-1,2.930339E-3,6.646541E-3,5.026959E-3,7.603926E-3,2.7665107E-3,4.730107E-3,1.6051396E-3,6.0320616E-4,-4.299122E-3,-2.5265282E-3,1.3651046E-3,-1.1444888E-3],"categories":[],"categories_nodes":[],"categories_segments":[],"categories_sizes":[],"default_left":[0,0,0,0,0,0,0,0,0,0,0,0,0,0,0,0,0,0,0,0,0,0,0,0,0,0,0,0,0,0,0,0,0],"id":29,"left_children":[1,3,5,7,9,-1,11,13,15,-1,-1,17,19,21,23,25,27,-1,-1,29,31,-1,-1,-1,-1,-1,-1,-1,-1,-1,-1,-1,-1],"loss_changes":[3.6695785E4,1.9249385E3,9.066807E3,1.6359248E3,1.9559082E1,0E0,4.162635E3,1.00313477E3,3.9579736E2,0E0,0E0,7.312695E1,1.8538633E3,1.1633398E3,9.3103516E1,2.6653687E1,8.897412E1,0E0,0E0,6.707715E2,3.4734058E2,0E0,0E0,0E0,0E0,0E0,0E0,0E0,0E0,0E0,0E0,0E0,0E0],"parents":[2147483647,0,0,1,1,2,2,3,3,4,4,6,6,7,7,8,8,11,11,12,12,13,13,14,14,15,15,16,16,19,19,20,20],"right_children":[2,4,6,8,10,-1,12,14,16,-1,-1,18,20,22,24,26,28,-1,-1,30,32,-1,-1,-1,-1,-1,-1,-1,-1,-1,-1,-1,-1],"split_conditions":[1.9025634E-1,5.103272E-1,2.5483724E-1,4.1012898E-1,5.716945E-1,-1.3892507E-2,6.771501E-2,4.2315504E-1,-1.0686E0,8.117659E-3,6.1165243E-3,4.6942335E-2,1.7994678E0,1.3281873E-1,-2.4417807E-1,5.1832235E-1,-6.6521317E-1,-1.0942996E-2,-8.098933E-3,1.580658E-1,2.7018377E-1,2.930339E-3,6.646541E-3,5.026959E-3,7.603926E-3,2.7665107E-3,4.730107E-3,1.6051396E-3,6.0320616E-4,-4.299122E-3,-2.5265282E-3,1.3651046E-3,-1.1444888E-3],"split_indices":[8,7,6,7,3,0,5,5,10,0,0,3,8,12,0,3,8,0,0,5,6,0,0,0,0,0,0,0,0,0,0,0,0],"split_type":[0,0,0,0,0,0,0,0,0,0,0,0,0,0,0,0,0,0,0,0,0,0,0,0,0,0,0,0,0,0,0,0,0],"sum_hessian":[2.89E3,1.6E3,1.29E3,1.508E3,9.2E1,8.5E1,1.205E3,1.072E3,4.36E2,6.6E1,2.6E1,8.6E1,1.119E3,9.82E2,9E1,4.5E1,3.91E2,5.2E1,3.4E1,8.67E2,2.52E2,8.89E2,9.3E1,3.1E1,5.9E1,1.7E1,2.8E1,1.37E2,2.54E2,4.39E2,4.28E2,8E1,1.72E2],"tree_param":{"num_deleted":"0","num_feature":"13","num_nodes":"33","size_leaf_vector":"1"}},{"base_weights":[3.2534776E-5,3.1955817E0,-3.9628446E0,2.921002E0,7.6165E0,-1.3878777E-2,-3.2524524E0,3.584387E0,1.2854565E0,8.109663E-3,6.110634E-3,-9.914908E0,-2.7320185E0,4.1095533E0,1.7927661E0,4.06067E0,9.565146E-1,-1.1014555E-2,-8.207087E-3,-3.424568E0,-3.4519967E-1,4.443673E-3,7.887556E-4,2.198408E-3,4.7670197E-4,2.7638988E-3,4.7255396E-3,1.6035453E-3,6.0260587E-4,-4.2948322E-3,-2.5240066E-3,1.3637559E-3,-1.1433511E-3],"categories":[],"categories_nodes":[],"categories_segments":[],"categories_sizes":[],"default_left":[0,0,0,0,0,0,0,0,0,0,0,0,0,0,0,0,0,0,0,0,0,0,0,0,0,0,0,0,0,0,0,0,0],"id":30,"left_children":[1,3,5,7,9,-1,11,13,15,-1,-1,17,19,21,23,25,27,-1,-1,29,31,-1,-1,-1,-1,-1,-1,-1,-1,-1,-1,-1,-1],"loss_changes":[3.662304E4,1.9212002E3,9.048922E3,1.6326523E3,1.9509277E1,0E0,4.1545586E3,1.0022168E3,3.950462E2,0E0,0E0,7.298828E1,1.850167E3,9.1630566E2,1.2974536E2,2.659961E1,8.87977E1,0E0,0E0,6.694346E2,3.466526E2,0E0,0E0,0E0,0E0,0E0,0E0,0E0,0E0,0E0,0E0,0E0,0E0],"parents":[2147483647,0,0,1,1,2,2,3,3,4,4,6,6,7,7,8,8,11,11,12,12,13,13,14,14,15,15,16,16,19,19,20,20],"right_children":[2,4,6,8,10,-1,12,14,16,-1,-1,18,20,22,24,26,28,-1,-1,30,32,-1,-1,-1,-1,-1,-1,-1,-1,-1,-1,-1,-1],"split_conditions":[1.9025634E-1,5.103272E-1,2.5483724E-1,4.1012898E-1,5.716945E-1,-1.3878777E-2,6.771501E-2,2.8103483E-1,-1.0686E0,8.109663E-3,6.110634E-3,-6.275831E-2,1.7994678E0,-3.5001582E-1,-2.3216525E-1,5.1832235E-1,-6.6521317E-1,-1.1014555E-2,-8.207087E-3,1.580658E-1,2.7018377E-1,4.443673E-3,7.887556E-4,2.198408E-3,4.7670197E-4,2.7638988E-3,4.7255396E-3,1.6035453E-3,6.0260587E-4,-4.2948322E-3,-2.5240066E-3,1.3637559E-3,-1.1433511E-3],"split_indices":[8,7,6,7,3,0,5,6,10,0,0,0,8,8,0,3,8,0,0,5,6,0,0,0,0,0,0,0,0,0,0,0,0],"split_type":[0,0,0,0,0,0,0,0,0,0,0,0,0,0,0,0,0,0,0,0,0,0,0,0,0,0,0,0,0,0,0,0,0],"sum_hessian":[2.89E3,1.6E3,1.29E3,1.508E3,9.2E1,8.5E1,1.205E3,1.072E3,4.36E2,6.6E1,2.6E1,8.6E1,1.119E3,8.28E2,2.44E2,4.5E1,3.91E2,4.9E1,3.7E1,8.67E2,2.52E2,7.52E2,7.6E1,1.86E2,5.8E1,1.7E1,2.8E1,1.37E2,2.54E2,4.39E2,4.28E2,8E1,1.72E2],"tree_param":{"num_deleted":"0","num_feature":"13","num_nodes":"33","size_leaf_vector":"1"}},{"base_weights":[2.9453726E-5,3.1924055E0,-3.9589126E0,2.918092E0,7.609036E0,-1.3865059E-2,-3.2492216E0,3.5808096E0,1.284193E0,8.101674E-3,6.1047496E-3,-9.905214E0,-2.7292924E0,3.2819073E0,6.7702603E0,4.0567713E0,9.555634E-1,-1.0921611E-2,-8.083093E-3,-3.4211514E0,-3.4485418E-1,2.9240132E-3,6.6355676E-3,5.017783E-3,7.5920783E-3,2.7612885E-3,4.720976E-3,1.6019527E-3,6.020055E-4,-4.290547E-3,-2.5214893E-3,1.362409E-3,-1.1422152E-3],"categories":[],"categories_nodes":[],"categories_segments":[],"categories_sizes":[],"default_left":[0,0,0,0,0,0,0,0,0,0,0,0,0,0,0,0,0,0,0,0,0,0,0,0,0,0,0,0,0,0,0,0,0],"id":31,"left_children":[1,3,5,7,9,-1,11,13,15,-1,-1,17,19,21,23,25,27,-1,-1,29,31,-1,-1,-1,-1,-1,-1,-1,-1,-1,-1,-1,-1],"loss_changes":[3.6550344E4,1.9174727E3,9.03107E3,1.6293672E3,1.946045E1,0E0,4.146503E3,1.000708E3,3.942967E2,0E0,0E0,7.284375E1,1.8464785E3,1.1604502E3,9.296387E1,2.654535E1,8.8621735E1,0E0,0E0,6.6809766E2,3.4596634E2,0E0,0E0,0E0,0E0,0E0,0E0,0E0,0E0,0E0,0E0,0E0,0E0],"parents":[2147483647,0,0,1,1,2,2,3,3,4,4,6,6,7,7,8,8,11,11,12,12,13,13,14,14,15,15,16,16,19,19,20,20],"right_children":[2,4,6,8,10,-1,12,14,16,-1,-1,18,20,22,24,26,28,-1,-1,30,32,-1,-1,-1,-1,-1,-1,-1,-1,-1,-1,-1,-1],"split_conditions":[1.9025634E-1,5.103272E-1,2.5483724E-1,4.1012898E-1,5.716945E-1,-1.3865059E-2,6.771501E-2,4.2315504E-1,-1.0686E0,8.101674E-3,6.1047496E-3,4.6942335E-2,1.7994678E0,1.3281873E-1,-2.4417807E-1,5.1832235E-1,-6.6521317E-1,-1.0921611E-2,-8.083093E-3,1.580658E-1,2.7018377E-1,2.9240132E-3,6.6355676E-3,5.017783E-3,7.5920783E-3,2.7612885E-3,4.720976E-3,1.6019527E-3,6.020055E-4,-4.290547E-3,-2.5214893E-3,1.362409E-3,-1.1422152E-3],"split_indices":[8,7,6,7,3,0,5,5,10,0,0,3,8,12,0,3,8,0,0,5,6,0,0,0,0,0,0,0,0,0,0,0,0],"split_type":[0,0,0,0,0,0,0,0,0,0,0,0,0,0,0,0,0,0,0,0,0,0,0,0,0,0,0,0,0,0,0,0,0],"sum_hessian":[2.89E3,1.6E3,1.29E3,1.508E3,9.2E1,8.5E1,1.205E3,1.072E3,4.36E2,6.6E1,2.6E1,8.6E1,1.119E3,9.82E2,9E1,4.5E1,3.91E2,5.2E1,3.4E1,8.67E2,2.52E2,8.89E2,9.3E1,3.1E1,5.9E1,1.7E1,2.8E1,1.37E2,2.54E2,4.39E2,4.28E2,8E1,1.72E2],"tree_param":{"num_deleted":"0","num_feature":"13","num_nodes":"33","size_leaf_vector":"1"}},{"base_weights":[3.1515458E-5,3.189242E0,-3.9549844E0,2.915195E0,7.6015787E0,-1.3851356E-2,-3.2459936E0,3.5772495E0,1.2829305E0,8.093692E-3,6.09887E-3,-9.895527E0,-2.7265692E0,4.101702E0,1.7880716E0,4.0528774E0,9.54613E-1,-1.0993057E-2,-8.191001E-3,-3.4177384E0,-3.4450808E-1,4.435404E-3,7.8509026E-4,2.1933122E-3,4.733588E-4,2.75868E-3,4.716418E-3,1.6003622E-3,6.014051E-4,-4.286267E-3,-2.5189738E-3,1.3610639E-3,-1.1410794E-3],"categories":[],"categories_nodes":[],"categories_segments":[],"categories_sizes":[],"default_left":[0,0,0,0,0,0,0,0,0,0,0,0,0,0,0,0,0,0,0,0,0,0,0,0,0,0,0,0,0,0,0,0,0],"id":32,"left_children":[1,3,5,7,9,-1,11,13,15,-1,-1,17,19,21,23,25,27,-1,-1,29,31,-1,-1,-1,-1,-1,-1,-1,-1,-1,-1,-1,-1],"loss_changes":[3.647789E4,1.913749E3,9.013256E3,1.6261084E3,1.9411621E1,0E0,4.13846E3,9.995039E2,3.9354858E2,0E0,0E0,7.271289E1,1.8427988E3,9.140205E2,1.2949164E2,2.6491455E1,8.844635E1,0E0,0E0,6.667656E2,3.4528125E2,0E0,0E0,0E0,0E0,0E0,0E0,0E0,0E0,0E0,0E0,0E0,0E0],"parents":[2147483647,0,0,1,1,2,2,3,3,4,4,6,6,7,7,8,8,11,11,12,12,13,13,14,14,15,15,16,16,19,19,20,20],"right_children":[2,4,6,8,10,-1,12,14,16,-1,-1,18,20,22,24,26,28,-1,-1,30,32,-1,-1,-1,-1,-1,-1,-1,-1,-1,-1,-1,-1],"split_conditions":[1.9025634E-1,5.103272E-1,2.5483724E-1,4.1012898E-1,5.716945E-1,-1.3851356E-2,6.771501E-2,2.8103483E-1,-1.0686E0,8.093692E-3,6.09887E-3,-6.275831E-2,1.7994678E0,-3.5001582E-1,-2.3216525E-1,5.1832235E-1,-6.6521317E-1,-1.0993057E-2,-8.191001E-3,1.580658E-1,2.7018377E-1,4.435404E-3,7.8509026E-4,2.1933122E-3,4.733588E-4,2.75868E-3,4.716418E-3,1.6003622E-3,6.014051E-4,-4.286267E-3,-2.5189738E-3,1.3610639E-3,-1.1410794E-3],"split_indices":[8,7,6,7,3,0,5,6,10,0,0,0,8,8,0,3,8,0,0,5,6,0,0,0,0,0,0,0,0,0,0,0,0],"split_type":[0,0,0,0,0,0,0,0,0,0,0,0,0,0,0,0,0,0,0,0,0,0,0,0,0,0,0,0,0,0,0,0,0],"sum_hessian":[2.89E3,1.6E3,1.29E3,1.508E3,9.2E1,8.5E1,1.205E3,1.072E3,4.36E2,6.6E1,2.6E1,8.6E1,1.119E3,8.28E2,2.44E2,4.5E1,3.91E2,4.9E1,3.7E1,8.67E2,2.52E2,7.52E2,7.6E1,1.86E2,5.8E1,1.7E1,2.8E1,1.37E2,2.54E2,4.39E2,4.28E2,8E1,1.72E2],"tree_param":{"num_deleted":"0","num_feature":"13","num_nodes":"33","size_leaf_vector":"1"}},{"base_weights":[2.8995197E-5,3.1860728E0,-3.9510603E0,2.912292E0,7.59413E0,-1.3837666E-2,-3.2427692E0,3.5736802E0,1.2816701E0,8.085719E-3,6.0929963E-3,-9.885852E0,-2.7238486E0,3.275145E0,6.7592435E0,4.048987E0,9.5366436E-1,-1.0982283E-2,-8.183026E-3,-3.4143286E0,-3.4416327E-1,2.917701E-3,6.624615E-3,5.0086253E-3,7.5802524E-3,2.7560752E-3,4.7118636E-3,1.5987735E-3,6.0080667E-4,-4.2819907E-3,-2.51646E-3,1.3597189E-3,-1.1399454E-3],"categories":[],"categories_nodes":[],"categories_segments":[],"categories_sizes":[],"default_left":[0,0,0,0,0,0,0,0,0,0,0,0,0,0,0,0,0,0,0,0,0,0,0,0,0,0,0,0,0,0,0,0,0],"id":33,"left_children":[1,3,5,7,9,-1,11,13,15,-1,-1,17,19,21,23,25,27,-1,-1,29,31,-1,-1,-1,-1,-1,-1,-1,-1,-1,-1,-1,-1],"loss_changes":[3.6405492E4,1.9100391E3,8.995479E3,1.6228369E3,1.9362305E1,0E0,4.1304316E3,9.982871E2,3.928017E2,0E0,0E0,7.256445E1,1.839126E3,1.1575674E3,9.2825195E1,2.6437622E1,8.827109E1,0E0,0E0,6.654375E2,3.4459744E2,0E0,0E0,0E0,0E0,0E0,0E0,0E0,0E0,0E0,0E0,0E0,0E0],"parents":[2147483647,0,0,1,1,2,2,3,3,4,4,6,6,7,7,8,8,11,11,12,12,13,13,14,14,15,15,16,16,19,19,20,20],"right_children":[2,4,6,8,10,-1,12,14,16,-1,-1,18,20,22,24,26,28,-1,-1,30,32,-1,-1,-1,-1,-1,-1,-1,-1,-1,-1,-1,-1],"split_conditions":[1.9025634E-1,5.103272E-1,2.5483724E-1,4.1012898E-1,5.716945E-1,-1.3837666E-2,6.771501E-2,4.2315504E-1,-1.0686E0,8.085719E-3,6.0929963E-3,-6.275831E-2,1.7994678E0,1.3281873E-1,-2.4417807E-1,5.1832235E-1,-6.6521317E-1,-1.0982283E-2,-8.183026E-3,1.580658E-1,2.7018377E-1,2.917701E-3,6.624615E-3,5.0086253E-3,7.5802524E-3,2.7560752E-3,4.7118636E-3,1.5987735E-3,6.0080667E-4,-4.2819907E-3,-2.51646E-3,1.3597189E-3,-1.1399454E-3],"split_indices":[8,7,6,7,3,0,5,5,10,0,0,0,8,12,0,3,8,0,0,5,6,0,0,0,0,0,0,0,0,0,0,0,0],"split_type":[0,0,0,0,0,0,0,0,0,0,0,0,0,0,0,0,0,0,0,0,0,0,0,0,0,0,0,0,0,0,0,0,0],"sum_hessian":[2.89E3,1.6E3,1.29E3,1.508E3,9.2E1,8.5E1,1.205E3,1.072E3,4.36E2,6.6E1,2.6E1,8.6E1,1.119E3,9.82E2,9E1,4.5E1,3.91E2,4.9E1,3.7E1,8.67E2,2.52E2,8.89E2,9.3E1,3.1E1,5.9E1,1.7E1,2.8E1,1.37E2,2.54E2,4.39E2,4.28E2,8E1,1.72E2],"tree_param":{"num_deleted":"0","num_feature":"13","num_nodes":"33","size_leaf_vector":"1"}},{"base_weights":[3.1014042E-5,3.1829152E0,-3.94714E0,2.9094005E0,7.586689E0,-1.382399E-2,-3.239548E0,3.5701265E0,1.2804108E0,8.077756E-3,6.08713E-3,-9.876186E0,-2.7211308E0,4.093867E0,1.783388E0,4.0451007E0,9.5271647E-1,-1.0889651E-2,-8.059336E-3,-3.4109223E0,-3.4381786E-1,4.4271518E-3,7.814343E-4,2.188228E-3,4.70025E-4,2.7534722E-3,4.707315E-3,1.5971868E-3,6.002082E-4,-4.2777187E-3,-2.51395E-3,1.3583758E-3,-1.1388112E-3],"categories":[],"categories_nodes":[],"categories_segments":[],"categories_sizes":[],"default_left":[0,0,0,0,0,0,0,0,0,0,0,0,0,0,0,0,0,0,0,0,0,0,0,0,0,0,0,0,0,0,0,0,0],"id":34,"left_children":[1,3,5,7,9,-1,11,13,15,-1,-1,17,19,21,23,25,27,-1,-1,29,31,-1,-1,-1,-1,-1,-1,-1,-1,-1,-1,-1,-1],"loss_changes":[3.633332E4,1.9063271E3,8.977732E3,1.6195898E3,1.9313477E1,0E0,4.122423E3,9.967988E2,3.9205634E2,0E0,0E0,7.2430664E1,1.8354609E3,9.117422E2,1.292384E2,2.6383972E1,8.8096344E1,0E0,0E0,6.641084E2,3.4391476E2,0E0,0E0,0E0,0E0,0E0,0E0,0E0,0E0,0E0,0E0,0E0,0E0],"parents":[2147483647,0,0,1,1,2,2,3,3,4,4,6,6,7,7,8,8,11,11,12,12,13,13,14,14,15,15,16,16,19,19,20,20],"right_children":[2,4,6,8,10,-1,12,14,16,-1,-1,18,20,22,24,26,28,-1,-1,30,32,-1,-1,-1,-1,-1,-1,-1,-1,-1,-1,-1,-1],"split_conditions":[1.9025634E-1,5.103272E-1,2.5483724E-1,4.1012898E-1,5.716945E-1,-1.382399E-2,6.771501E-2,2.8103483E-1,-1.0686E0,8.077756E-3,6.08713E-3,4.6942335E-2,1.7994678E0,-3.5001582E-1,-2.3216525E-1,5.1832235E-1,-6.6521317E-1,-1.0889651E-2,-8.059336E-3,1.580658E-1,2.7018377E-1,4.4271518E-3,7.814343E-4,2.188228E-3,4.70025E-4,2.7534722E-3,4.707315E-3,1.5971868E-3,6.002082E-4,-4.2777187E-3,-2.51395E-3,1.3583758E-3,-1.1388112E-3],"split_indices":[8,7,6,7,3,0,5,6,10,0,0,3,8,8,0,3,8,0,0,5,6,0,0,0,0,0,0,0,0,0,0,0,0],"split_type":[0,0,0,0,0,0,0,0,0,0,0,0,0,0,0,0,0,0,0,0,0,0,0,0,0,0,0,0,0,0,0,0,0],"sum_hessian":[2.89E3,1.6E3,1.29E3,1.508E3,9.2E1,8.5E1,1.205E3,1.072E3,4.36E2,6.6E1,2.6E1,8.6E1,1.119E3,8.28E2,2.44E2,4.5E1,3.91E2,5.2E1,3.4E1,8.67E2,2.52E2,7.52E2,7.6E1,1.86E2,5.8E1,1.7E1,2.8E1,1.37E2,2.54E2,4.39E2,4.28E2,8E1,1.72E2],"tree_param":{"num_deleted":"0","num_feature":"13","num_nodes":"33","size_leaf_vector":"1"}},{"base_weights":[2.8463433E-5,3.1797523E0,-3.9432232E0,2.9065027E0,7.579255E0,-1.3810325E-2,-3.2363293E0,3.566564E0,1.2791523E0,8.069798E-3,6.081269E-3,-9.8665285E0,-2.7184155E0,3.2683957E0,6.7482443E0,4.0412173E0,9.5176923E-1,-1.0960849E-2,-8.166988E-3,-3.407519E0,-3.4347317E-1,2.9114012E-3,6.6136816E-3,4.999485E-3,7.568446E-3,2.750871E-3,4.70277E-3,1.5956019E-3,5.9960975E-4,-4.27345E-3,-2.511442E-3,1.3570345E-3,-1.1376793E-3],"categories":[],"categories_nodes":[],"categories_segments":[],"categories_sizes":[],"default_left":[0,0,0,0,0,0,0,0,0,0,0,0,0,0,0,0,0,0,0,0,0,0,0,0,0,0,0,0,0,0,0,0,0],"id":35,"left_children":[1,3,5,7,9,-1,11,13,15,-1,-1,17,19,21,23,25,27,-1,-1,29,31,-1,-1,-1,-1,-1,-1,-1,-1,-1,-1,-1,-1],"loss_changes":[3.6261203E4,1.9026318E3,8.960021E3,1.616333E3,1.926416E1,0E0,4.1144307E3,9.95874E2,3.9131232E2,0E0,0E0,7.228906E1,1.8317998E3,1.1546924E3,9.2686035E1,2.6330383E1,8.792209E1,0E0,0E0,6.6278516E2,3.4323386E2,0E0,0E0,0E0,0E0,0E0,0E0,0E0,0E0,0E0,0E0,0E0,0E0],"parents":[2147483647,0,0,1,1,2,2,3,3,4,4,6,6,7,7,8,8,11,11,12,12,13,13,14,14,15,15,16,16,19,19,20,20],"right_children":[2,4,6,8,10,-1,12,14,16,-1,-1,18,20,22,24,26,28,-1,-1,30,32,-1,-1,-1,-1,-1,-1,-1,-1,-1,-1,-1,-1],"split_conditions":[1.9025634E-1,5.103272E-1,2.5483724E-1,4.1012898E-1,5.716945E-1,-1.3810325E-2,6.771501E-2,4.2315504E-1,-1.0686E0,8.069798E-3,6.081269E-3,-6.275831E-2,1.7994678E0,1.3281873E-1,-2.4417807E-1,5.1832235E-1,-6.6521317E-1,-1.0960849E-2,-8.166988E-3,1.580658E-1,2.7018377E-1,2.9114012E-3,6.6136816E-3,4.999485E-3,7.568446E-3,2.750871E-3,4.70277E-3,1.5956019E-3,5.9960975E-4,-4.27345E-3,-2.511442E-3,1.3570345E-3,-1.1376793E-3],"split_indices":[8,7,6,7,3,0,5,5,10,0,0,0,8,12,0,3,8,0,0,5,6,0,0,0,0,0,0,0,0,0,0,0,0],"split_type":[0,0,0,0,0,0,0,0,0,0,0,0,0,0,0,0,0,0,0,0,0,0,0,0,0,0,0,0,0,0,0,0,0],"sum_hessian":[2.89E3,1.6E3,1.29E3,1.508E3,9.2E1,8.5E1,1.205E3,1.072E3,4.36E2,6.6E1,2.6E1,8.6E1,1.119E3,9.82E2,9E1,4.5E1,3.91E2,4.9E1,3.7E1,8.67E2,2.52E2,8.89E2,9.3E1,3.1E1,5.9E1,1.7E1,2.8E1,1.37E2,2.54E2,4.39E2,4.28E2,8E1,1.72E2],"tree_param":{"num_deleted":"0","num_feature":"13","num_nodes":"33","size_leaf_vector":"1"}},{"base_weights":[3.1168427E-5,3.176602E0,-3.93931E0,2.9036179E0,7.571828E0,-1.3796675E-2,-3.2331138E0,3.5630188E0,1.2778953E0,8.061849E-3,6.0754134E-3,-9.856881E0,-2.7157023E0,4.0860476E0,1.7787174E0,4.037338E0,9.508232E-1,-1.08683705E-2,-8.043574E-3,-3.4041185E0,-3.4312916E-1,4.418916E-3,7.7778957E-4,2.1831568E-3,4.6670245E-4,2.7482735E-3,4.6982286E-3,1.594017E-3,5.990132E-4,-4.269186E-3,-2.5089358E-3,1.3556951E-3,-1.136549E-3],"categories":[],"categories_nodes":[],"categories_segments":[],"categories_sizes":[],"default_left":[0,0,0,0,0,0,0,0,0,0,0,0,0,0,0,0,0,0,0,0,0,0,0,0,0,0,0,0,0,0,0,0,0],"id":36,"left_children":[1,3,5,7,9,-1,11,13,15,-1,-1,17,19,21,23,25,27,-1,-1,29,31,-1,-1,-1,-1,-1,-1,-1,-1,-1,-1,-1,-1],"loss_changes":[3.618932E4,1.8989355E3,8.942346E3,1.6130986E3,1.9215332E1,0E0,4.106452E3,9.940996E2,3.905697E2,0E0,0E0,7.2149414E1,1.8281484E3,9.094697E2,1.289856E2,2.6276733E1,8.774768E1,0E0,0E0,6.614629E2,3.4255463E2,0E0,0E0,0E0,0E0,0E0,0E0,0E0,0E0,0E0,0E0,0E0,0E0],"parents":[2147483647,0,0,1,1,2,2,3,3,4,4,6,6,7,7,8,8,11,11,12,12,13,13,14,14,15,15,16,16,19,19,20,20],"right_children":[2,4,6,8,10,-1,12,14,16,-1,-1,18,20,22,24,26,28,-1,-1,30,32,-1,-1,-1,-1,-1,-1,-1,-1,-1,-1,-1,-1],"split_conditions":[1.9025634E-1,5.103272E-1,2.5483724E-1,4.1012898E-1,5.716945E-1,-1.3796675E-2,6.771501E-2,2.8103483E-1,-1.0686E0,8.061849E-3,6.0754134E-3,4.6942335E-2,1.7994678E0,-3.5001582E-1,-2.3216525E-1,5.1832235E-1,-6.6521317E-1,-1.08683705E-2,-8.043574E-3,1.580658E-1,2.7018377E-1,4.418916E-3,7.7778957E-4,2.1831568E-3,4.6670245E-4,2.7482735E-3,4.6982286E-3,1.594017E-3,5.990132E-4,-4.269186E-3,-2.5089358E-3,1.3556951E-3,-1.136549E-3],"split_indices":[8,7,6,7,3,0,5,6,10,0,0,3,8,8,0,3,8,0,0,5,6,0,0,0,0,0,0,0,0,0,0,0,0],"split_type":[0,0,0,0,0,0,0,0,0,0,0,0,0,0,0,0,0,0,0,0,0,0,0,0,0,0,0,0,0,0,0,0,0],"sum_hessian":[2.89E3,1.6E3,1.29E3,1.508E3,9.2E1,8.5E1,1.205E3,1.072E3,4.36E2,6.6E1,2.6E1,8.6E1,1.119E3,8.28E2,2.44E2,4.5E1,3.91E2,5.2E1,3.4E1,8.67E2,2.52E2,7.52E2,7.6E1,1.86E2,5.8E1,1.7E1,2.8E1,1.37E2,2.54E2,4.39E2,4.28E2,8E1,1.72E2],"tree_param":{"num_deleted":"0","num_feature":"13","num_nodes":"33","size_leaf_vector":"1"}},{"base_weights":[2.8067581E-5,3.1734445E0,-3.9354017E0,2.9007256E0,7.564408E0,-1.37830395E-2,-3.2299023E0,3.5594625E0,1.2766393E0,8.053907E-3,6.069564E-3,-9.847242E0,-2.712993E0,3.2616606E0,6.7372637E0,4.0334625E0,9.4987786E-1,-1.09394565E-2,-8.150983E-3,-3.400723E0,-3.4278512E-1,2.9051153E-3,6.602767E-3,4.9903607E-3,7.5566582E-3,2.7456777E-3,4.693693E-3,1.592434E-3,5.9841666E-4,-4.2649265E-3,-2.5064333E-3,1.3543557E-3,-1.1354188E-3],"categories":[],"categories_nodes":[],"categories_segments":[],"categories_sizes":[],"default_left":[0,0,0,0,0,0,0,0,0,0,0,0,0,0,0,0,0,0,0,0,0,0,0,0,0,0,0,0,0,0,0,0,0],"id":37,"left_children":[1,3,5,7,9,-1,11,13,15,-1,-1,17,19,21,23,25,27,-1,-1,29,31,-1,-1,-1,-1,-1,-1,-1,-1,-1,-1,-1,-1],"loss_changes":[3.611749E4,1.8952539E3,8.924705E3,1.6098545E3,1.9166504E1,0E0,4.0984863E3,9.9346484E2,3.8982855E2,0E0,0E0,7.2015625E1,1.8245049E3,1.1518232E3,9.254736E1,2.622351E1,8.757382E1,0E0,0E0,6.601426E2,3.418761E2,0E0,0E0,0E0,0E0,0E0,0E0,0E0,0E0,0E0,0E0,0E0,0E0],"parents":[2147483647,0,0,1,1,2,2,3,3,4,4,6,6,7,7,8,8,11,11,12,12,13,13,14,14,15,15,16,16,19,19,20,20],"right_children":[2,4,6,8,10,-1,12,14,16,-1,-1,18,20,22,24,26,28,-1,-1,30,32,-1,-1,-1,-1,-1,-1,-1,-1,-1,-1,-1,-1],"split_conditions":[1.9025634E-1,5.103272E-1,2.5483724E-1,4.1012898E-1,5.716945E-1,-1.37830395E-2,6.771501E-2,4.2315504E-1,-1.0686E0,8.053907E-3,6.069564E-3,-6.275831E-2,1.7994678E0,1.3281873E-1,-2.4417807E-1,5.1832235E-1,-6.6521317E-1,-1.09394565E-2,-8.150983E-3,1.580658E-1,2.7018377E-1,2.9051153E-3,6.602767E-3,4.9903607E-3,7.5566582E-3,2.7456777E-3,4.693693E-3,1.592434E-3,5.9841666E-4,-4.2649265E-3,-2.5064333E-3,1.3543557E-3,-1.1354188E-3],"split_indices":[8,7,6,7,3,0,5,5,10,0,0,0,8,12,0,3,8,0,0,5,6,0,0,0,0,0,0,0,0,0,0,0,0],"split_type":[0,0,0,0,0,0,0,0,0,0,0,0,0,0,0,0,0,0,0,0,0,0,0,0,0,0,0,0,0,0,0,0,0],"sum_hessian":[2.89E3,1.6E3,1.29E3,1.508E3,9.2E1,8.5E1,1.205E3,1.072E3,4.36E2,6.6E1,2.6E1,8.6E1,1.119E3,9.82E2,9E1,4.5E1,3.91E2,4.9E1,3.7E1,8.67E2,2.52E2,8.89E2,9.3E1,3.1E1,5.9E1,1.7E1,2.8E1,1.37E2,2.54E2,4.39E2,4.28E2,8E1,1.72E2],"tree_param":{"num_deleted":"0","num_feature":"13","num_nodes":"33","size_leaf_vector":"1"}},{"base_weights":[3.0116778E-5,3.1702998E0,-3.931497E0,2.8978457E0,7.556995E0,-1.3769417E-2,-3.2266939E0,3.555924E0,1.2753843E0,8.045972E-3,6.0637197E-3,-9.837615E0,-2.7102861E0,3.2584088E0,6.7306643E0,4.0295906E0,9.489332E-1,-1.0847134E-2,-8.027843E-3,-3.3973303E0,-3.424418E-1,2.9022135E-3,6.5962337E-3,4.9855267E-3,7.549227E-3,2.7430835E-3,4.6891607E-3,1.590853E-3,5.978201E-4,-4.2606713E-3,-2.5039332E-3,1.3530182E-3,-1.1342905E-3],"categories":[],"categories_nodes":[],"categories_segments":[],"categories_sizes":[],"default_left":[0,0,0,0,0,0,0,0,0,0,0,0,0,0,0,0,0,0,0,0,0,0,0,0,0,0,0,0,0,0,0,0,0],"id":38,"left_children":[1,3,5,7,9,-1,11,13,15,-1,-1,17,19,21,23,25,27,-1,-1,29,31,-1,-1,-1,-1,-1,-1,-1,-1,-1,-1,-1,-1],"loss_changes":[3.604589E4,1.8915703E3,8.907102E3,1.6066338E3,1.9117676E1,0E0,4.090541E3,9.915537E2,3.8908887E2,0E0,0E0,7.187012E1,1.8208672E3,1.1495615E3,9.235693E1,2.6170227E1,8.740039E1,0E0,0E0,6.588262E2,3.4119925E2,0E0,0E0,0E0,0E0,0E0,0E0,0E0,0E0,0E0,0E0,0E0,0E0],"parents":[2147483647,0,0,1,1,2,2,3,3,4,4,6,6,7,7,8,8,11,11,12,12,13,13,14,14,15,15,16,16,19,19,20,20],"right_children":[2,4,6,8,10,-1,12,14,16,-1,-1,18,20,22,24,26,28,-1,-1,30,32,-1,-1,-1,-1,-1,-1,-1,-1,-1,-1,-1,-1],"split_conditions":[1.9025634E-1,5.103272E-1,2.5483724E-1,4.1012898E-1,5.716945E-1,-1.3769417E-2,6.771501E-2,4.2315504E-1,-1.0686E0,8.045972E-3,6.0637197E-3,4.6942335E-2,1.7994678E0,1.3281873E-1,-2.4417807E-1,5.1832235E-1,-6.6521317E-1,-1.0847134E-2,-8.027843E-3,1.580658E-1,2.7018377E-1,2.9022135E-3,6.5962337E-3,4.9855267E-3,7.549227E-3,2.7430835E-3,4.6891607E-3,1.590853E-3,5.978201E-4,-4.2606713E-3,-2.5039332E-3,1.3530182E-3,-1.1342905E-3],"split_indices":[8,7,6,7,3,0,5,5,10,0,0,3,8,12,0,3,8,0,0,5,6,0,0,0,0,0,0,0,0,0,0,0,0],"split_type":[0,0,0,0,0,0,0,0,0,0,0,0,0,0,0,0,0,0,0,0,0,0,0,0,0,0,0,0,0,0,0,0,0],"sum_hessian":[2.89E3,1.6E3,1.29E3,1.508E3,9.2E1,8.5E1,1.205E3,1.072E3,4.36E2,6.6E1,2.6E1,8.6E1,1.119E3,9.82E2,9E1,4.5E1,3.91E2,5.2E1,3.4E1,8.67E2,2.52E2,8.89E2,9.3E1,3.1E1,5.9E1,1.7E1,2.8E1,1.37E2,2.54E2,4.39E2,4.28E2,8E1,1.72E2],"tree_param":{"num_deleted":"0","num_feature":"13","num_nodes":"33","size_leaf_vector":"1"}},{"base_weights":[3.240942E-5,3.167158E0,-3.9275956E0,2.8949687E0,7.54959E0,-1.3755809E-2,-3.2234879E0,3.552388E0,1.2741315E0,8.038047E-3,6.057881E-3,-9.827994E0,-2.7075813E0,4.0745196E0,1.7711645E0,4.025723E0,9.479904E-1,-1.0918106E-2,-8.135008E-3,-3.3939402E0,-3.4209788E-1,4.4068894E-3,7.7128905E-4,2.1752077E-3,4.6053363E-4,2.7404933E-3,4.6846345E-3,1.5892738E-3,5.972254E-4,-4.2564203E-3,-2.5014344E-3,1.3516826E-3,-1.1331622E-3],"categories":[],"categories_nodes":[],"categories_segments":[],"categories_sizes":[],"default_left":[0,0,0,0,0,0,0,0,0,0,0,0,0,0,0,0,0,0,0,0,0,0,0,0,0,0,0,0,0,0,0,0,0],"id":39,"left_children":[1,3,5,7,9,-1,11,13,15,-1,-1,17,19,21,23,25,27,-1,-1,29,31,-1,-1,-1,-1,-1,-1,-1,-1,-1,-1,-1,-1],"loss_changes":[3.597443E4,1.8878984E3,8.889533E3,1.603418E3,1.9069336E1,0E0,4.0826055E3,9.9070996E2,3.8835065E2,0E0,0E0,7.174414E1,1.8172383E3,9.067539E2,1.2873828E2,2.6117004E1,8.7227234E1,0E0,0E0,6.575117E2,3.4052362E2,0E0,0E0,0E0,0E0,0E0,0E0,0E0,0E0,0E0,0E0,0E0,0E0],"parents":[2147483647,0,0,1,1,2,2,3,3,4,4,6,6,7,7,8,8,11,11,12,12,13,13,14,14,15,15,16,16,19,19,20,20],"right_children":[2,4,6,8,10,-1,12,14,16,-1,-1,18,20,22,24,26,28,-1,-1,30,32,-1,-1,-1,-1,-1,-1,-1,-1,-1,-1,-1,-1],"split_conditions":[1.9025634E-1,5.103272E-1,2.5483724E-1,4.1012898E-1,5.716945E-1,-1.3755809E-2,6.771501E-2,2.8103483E-1,-1.0686E0,8.038047E-3,6.057881E-3,-6.275831E-2,1.7994678E0,-3.5001582E-1,-2.3216525E-1,5.1832235E-1,-6.6521317E-1,-1.0918106E-2,-8.135008E-3,1.580658E-1,2.7018377E-1,4.4068894E-3,7.7128905E-4,2.1752077E-3,4.6053363E-4,2.7404933E-3,4.6846345E-3,1.5892738E-3,5.972254E-4,-4.2564203E-3,-2.5014344E-3,1.3516826E-3,-1.1331622E-3],"split_indices":[8,7,6,7,3,0,5,6,10,0,0,0,8,8,0,3,8,0,0,5,6,0,0,0,0,0,0,0,0,0,0,0,0],"split_type":[0,0,0,0,0,0,0,0,0,0,0,0,0,0,0,0,0,0,0,0,0,0,0,0,0,0,0,0,0,0,0,0,0],"sum_hessian":[2.89E3,1.6E3,1.29E3,1.508E3,9.2E1,8.5E1,1.205E3,1.072E3,4.36E2,6.6E1,2.6E1,8.6E1,1.119E3,8.28E2,2.44E2,4.5E1,3.91E2,4.9E1,3.7E1,8.67E2,2.52E2,7.52E2,7.6E1,1.86E2,5.8E1,1.7E1,2.8E1,1.37E2,2.54E2,4.39E2,4.28E2,8E1,1.72E2],"tree_param":{"num_deleted":"0","num_feature":"13","num_nodes":"33","size_leaf_vector":"1"}},{"base_weights":[2.9996703E-5,3.164011E0,-3.9236987E0,2.892086E0,7.5421925E0,-1.3742212E-2,-3.220286E0,3.5488436E0,1.2728797E0,8.03013E-3,6.052047E-3,-9.818386E0,-2.7048795E0,3.2516942E0,6.7197137E0,4.0218587E0,9.470483E-1,-1.0907406E-2,-8.127086E-3,-3.3905542E0,-3.4175524E-1,2.8959468E-3,6.5853493E-3,4.9764286E-3,7.537471E-3,2.7379047E-3,4.680111E-3,1.5876964E-3,5.966308E-4,-4.2521725E-3,-2.4989399E-3,1.350347E-3,-1.1320357E-3],"categories":[],"categories_nodes":[],"categories_segments":[],"categories_sizes":[],"default_left":[0,0,0,0,0,0,0,0,0,0,0,0,0,0,0,0,0,0,0,0,0,0,0,0,0,0,0,0,0,0,0,0,0],"id":40,"left_children":[1,3,5,7,9,-1,11,13,15,-1,-1,17,19,21,23,25,27,-1,-1,29,31,-1,-1,-1,-1,-1,-1,-1,-1,-1,-1,-1,-1],"loss_changes":[3.590303E4,1.8842363E3,8.871996E3,1.6001934E3,1.9021484E1,0E0,4.0746895E3,9.891543E2,3.8761365E2,0E0,0E0,7.159668E1,1.8136152E3,1.146708E3,9.221875E1,2.6063965E1,8.7054474E1,0E0,0E0,6.561992E2,3.3984918E2,0E0,0E0,0E0,0E0,0E0,0E0,0E0,0E0,0E0,0E0,0E0,0E0],"parents":[2147483647,0,0,1,1,2,2,3,3,4,4,6,6,7,7,8,8,11,11,12,12,13,13,14,14,15,15,16,16,19,19,20,20],"right_children":[2,4,6,8,10,-1,12,14,16,-1,-1,18,20,22,24,26,28,-1,-1,30,32,-1,-1,-1,-1,-1,-1,-1,-1,-1,-1,-1,-1],"split_conditions":[1.9025634E-1,5.103272E-1,2.5483724E-1,4.1012898E-1,5.716945E-1,-1.3742212E-2,6.771501E-2,4.2315504E-1,-1.0686E0,8.03013E-3,6.052047E-3,-6.275831E-2,1.7994678E0,1.3281873E-1,-2.4417807E-1,5.1832235E-1,-6.6521317E-1,-1.0907406E-2,-8.127086E-3,1.580658E-1,2.7018377E-1,2.8959468E-3,6.5853493E-3,4.9764286E-3,7.537471E-3,2.7379047E-3,4.680111E-3,1.5876964E-3,5.966308E-4,-4.2521725E-3,-2.4989399E-3,1.350347E-3,-1.1320357E-3],"split_indices":[8,7,6,7,3,0,5,5,10,0,0,0,8,12,0,3,8,0,0,5,6,0,0,0,0,0,0,0,0,0,0,0,0],"split_type":[0,0,0,0,0,0,0,0,0,0,0,0,0,0,0,0,0,0,0,0,0,0,0,0,0,0,0,0,0,0,0,0,0],"sum_hessian":[2.89E3,1.6E3,1.29E3,1.508E3,9.2E1,8.5E1,1.205E3,1.072E3,4.36E2,6.6E1,2.6E1,8.6E1,1.119E3,9.82E2,9E1,4.5E1,3.91E2,4.9E1,3.7E1,8.67E2,2.52E2,8.89E2,9.3E1,3.1E1,5.9E1,1.7E1,2.8E1,1.37E2,2.54E2,4.39E2,4.28E2,8E1,1.72E2],"tree_param":{"num_deleted":"0","num_feature":"13","num_nodes":"33","size_leaf_vector":"1"}},{"base_weights":[3.225504E-5,3.1608758E0,-3.9198055E0,2.889215E0,7.534802E0,-1.372863E-2,-3.217087E0,3.5453157E0,1.2716289E0,8.022219E-3,6.0462193E-3,-9.808785E0,-2.7021809E0,4.066738E0,1.7665215E0,4.017998E0,9.4610685E-1,-1.0815392E-2,-8.004247E-3,-3.387172E0,-3.41412E-1,4.398693E-3,7.6767075E-4,2.170165E-3,4.5723547E-4,2.7353198E-3,4.6755923E-3,1.586121E-3,5.960361E-4,-4.247931E-3,-2.496447E-3,1.3490133E-3,-1.1309094E-3],"categories":[],"categories_nodes":[],"categories_segments":[],"categories_sizes":[],"default_left":[0,0,0,0,0,0,0,0,0,0,0,0,0,0,0,0,0,0,0,0,0,0,0,0,0,0,0,0,0,0,0,0,0],"id":41,"left_children":[1,3,5,7,9,-1,11,13,15,-1,-1,17,19,21,23,25,27,-1,-1,29,31,-1,-1,-1,-1,-1,-1,-1,-1,-1,-1,-1,-1],"loss_changes":[3.5831863E4,1.8805781E3,8.854492E3,1.5969922E3,1.8973145E1,0E0,4.066787E3,9.8802734E2,3.868781E2,0E0,0E0,7.1461914E1,1.8100015E3,9.0449414E2,1.2848651E2,2.6010803E1,8.688229E1,0E0,0E0,6.548906E2,3.391759E2,0E0,0E0,0E0,0E0,0E0,0E0,0E0,0E0,0E0,0E0,0E0,0E0],"parents":[2147483647,0,0,1,1,2,2,3,3,4,4,6,6,7,7,8,8,11,11,12,12,13,13,14,14,15,15,16,16,19,19,20,20],"right_children":[2,4,6,8,10,-1,12,14,16,-1,-1,18,20,22,24,26,28,-1,-1,30,32,-1,-1,-1,-1,-1,-1,-1,-1,-1,-1,-1,-1],"split_conditions":[1.9025634E-1,5.103272E-1,2.5483724E-1,4.1012898E-1,5.716945E-1,-1.372863E-2,6.771501E-2,2.8103483E-1,-1.0686E0,8.022219E-3,6.0462193E-3,4.6942335E-2,1.7994678E0,-3.5001582E-1,-2.3216525E-1,5.1832235E-1,-6.6521317E-1,-1.0815392E-2,-8.004247E-3,1.580658E-1,2.7018377E-1,4.398693E-3,7.6767075E-4,2.170165E-3,4.5723547E-4,2.7353198E-3,4.6755923E-3,1.586121E-3,5.960361E-4,-4.247931E-3,-2.496447E-3,1.3490133E-3,-1.1309094E-3],"split_indices":[8,7,6,7,3,0,5,6,10,0,0,3,8,8,0,3,8,0,0,5,6,0,0,0,0,0,0,0,0,0,0,0,0],"split_type":[0,0,0,0,0,0,0,0,0,0,0,0,0,0,0,0,0,0,0,0,0,0,0,0,0,0,0,0,0,0,0,0,0],"sum_hessian":[2.89E3,1.6E3,1.29E3,1.508E3,9.2E1,8.5E1,1.205E3,1.072E3,4.36E2,6.6E1,2.6E1,8.6E1,1.119E3,8.28E2,2.44E2,4.5E1,3.91E2,5.2E1,3.4E1,8.67E2,2.52E2,7.52E2,7.6E1,1.86E2,5.8E1,1.7E1,2.8E1,1.37E2,2.54E2,4.39E2,4.28E2,8E1,1.72E2],"tree_param":{"num_deleted":"0","num_feature":"13","num_nodes":"33","size_leaf_vector":"1"}},{"base_weights":[2.9749954E-5,3.1577349E0,-3.915916E0,2.8863378E0,7.5274186E0,-1.37150595E-2,-3.2138908E0,3.5417778E0,1.2703795E0,8.014317E-3,6.040397E-3,-9.799193E0,-2.6994843E0,3.2449934E0,6.7087812E0,4.0141416E0,9.4516665E-1,-1.0886119E-2,-8.1111565E-3,-3.3837924E0,-3.410695E-1,2.889694E-3,6.5744817E-3,4.967347E-3,7.5257337E-3,2.7327365E-3,4.6710786E-3,1.5845456E-3,5.9544336E-4,-4.2436924E-3,-2.4939561E-3,1.3476814E-3,-1.1297849E-3],"categories":[],"categories_nodes":[],"categories_segments":[],"categories_sizes":[],"default_left":[0,0,0,0,0,0,0,0,0,0,0,0,0,0,0,0,0,0,0,0,0,0,0,0,0,0,0,0,0,0,0,0,0],"id":42,"left_children":[1,3,5,7,9,-1,11,13,15,-1,-1,17,19,21,23,25,27,-1,-1,29,31,-1,-1,-1,-1,-1,-1,-1,-1,-1,-1,-1,-1],"loss_changes":[3.5760742E4,1.8769307E3,8.837027E3,1.5937793E3,1.8924805E1,0E0,4.0588975E3,9.867617E2,3.861441E2,0E0,0E0,7.132617E1,1.806395E3,1.1438584E3,9.208008E1,2.5958008E1,8.67099E1,0E0,0E0,6.53583E2,3.3850433E2,0E0,0E0,0E0,0E0,0E0,0E0,0E0,0E0,0E0,0E0,0E0,0E0],"parents":[2147483647,0,0,1,1,2,2,3,3,4,4,6,6,7,7,8,8,11,11,12,12,13,13,14,14,15,15,16,16,19,19,20,20],"right_children":[2,4,6,8,10,-1,12,14,16,-1,-1,18,20,22,24,26,28,-1,-1,30,32,-1,-1,-1,-1,-1,-1,-1,-1,-1,-1,-1,-1],"split_conditions":[1.9025634E-1,5.103272E-1,2.5483724E-1,4.1012898E-1,5.716945E-1,-1.37150595E-2,6.771501E-2,4.2315504E-1,-1.0686E0,8.014317E-3,6.040397E-3,-6.275831E-2,1.7994678E0,1.3281873E-1,-2.4417807E-1,5.1832235E-1,-6.6521317E-1,-1.0886119E-2,-8.1111565E-3,1.580658E-1,2.7018377E-1,2.889694E-3,6.5744817E-3,4.967347E-3,7.5257337E-3,2.7327365E-3,4.6710786E-3,1.5845456E-3,5.9544336E-4,-4.2436924E-3,-2.4939561E-3,1.3476814E-3,-1.1297849E-3],"split_indices":[8,7,6,7,3,0,5,5,10,0,0,0,8,12,0,3,8,0,0,5,6,0,0,0,0,0,0,0,0,0,0,0,0],"split_type":[0,0,0,0,0,0,0,0,0,0,0,0,0,0,0,0,0,0,0,0,0,0,0,0,0,0,0,0,0,0,0,0,0],"sum_hessian":[2.89E3,1.6E3,1.29E3,1.508E3,9.2E1,8.5E1,1.205E3,1.072E3,4.36E2,6.6E1,2.6E1,8.6E1,1.119E3,9.82E2,9E1,4.5E1,3.91E2,4.9E1,3.7E1,8.67E2,2.52E2,8.89E2,9.3E1,3.1E1,5.9E1,1.7E1,2.8E1,1.37E2,2.54E2,4.39E2,4.28E2,8E1,1.72E2],"tree_param":{"num_deleted":"0","num_feature":"13","num_nodes":"33","size_leaf_vector":"1"}},{"base_weights":[3.2030064E-5,3.1546056E0,-3.9120302E0,2.8834722E0,7.520042E0,-1.3701504E-2,-3.210698E0,3.5382566E0,1.2691311E0,8.006422E-3,6.03458E-3,-9.789613E0,-2.6967905E0,4.058971E0,1.7618874E0,4.0102882E0,9.442271E-1,-1.0794259E-2,-7.98859E-3,-3.380416E0,-3.4072825E-1,4.3905103E-3,7.640619E-4,2.1651322E-3,4.539448E-4,2.7301551E-3,4.6665687E-3,1.582972E-3,5.948506E-4,-4.2394586E-3,-2.4914672E-3,1.3463496E-3,-1.1286621E-3],"categories":[],"categories_nodes":[],"categories_segments":[],"categories_sizes":[],"default_left":[0,0,0,0,0,0,0,0,0,0,0,0,0,0,0,0,0,0,0,0,0,0,0,0,0,0,0,0,0,0,0,0,0],"id":43,"left_children":[1,3,5,7,9,-1,11,13,15,-1,-1,17,19,21,23,25,27,-1,-1,29,31,-1,-1,-1,-1,-1,-1,-1,-1,-1,-1,-1,-1],"loss_changes":[3.5689848E4,1.8732832E3,8.819594E3,1.5905908E3,1.8877441E1,0E0,4.0510293E3,9.853535E2,3.8541125E2,0E0,0E0,7.118555E1,1.8027925E3,9.022383E2,1.2823523E2,2.5905273E1,8.6538055E1,0E0,0E0,6.5228125E2,3.3783392E2,0E0,0E0,0E0,0E0,0E0,0E0,0E0,0E0,0E0,0E0,0E0,0E0],"parents":[2147483647,0,0,1,1,2,2,3,3,4,4,6,6,7,7,8,8,11,11,12,12,13,13,14,14,15,15,16,16,19,19,20,20],"right_children":[2,4,6,8,10,-1,12,14,16,-1,-1,18,20,22,24,26,28,-1,-1,30,32,-1,-1,-1,-1,-1,-1,-1,-1,-1,-1,-1,-1],"split_conditions":[1.9025634E-1,5.103272E-1,2.5483724E-1,4.1012898E-1,5.716945E-1,-1.3701504E-2,6.771501E-2,2.8103483E-1,-1.0686E0,8.006422E-3,6.03458E-3,4.6942335E-2,1.7994678E0,-3.5001582E-1,-2.3216525E-1,5.1832235E-1,-6.6521317E-1,-1.0794259E-2,-7.98859E-3,1.580658E-1,2.7018377E-1,4.3905103E-3,7.640619E-4,2.1651322E-3,4.539448E-4,2.7301551E-3,4.6665687E-3,1.582972E-3,5.948506E-4,-4.2394586E-3,-2.4914672E-3,1.3463496E-3,-1.1286621E-3],"split_indices":[8,7,6,7,3,0,5,6,10,0,0,3,8,8,0,3,8,0,0,5,6,0,0,0,0,0,0,0,0,0,0,0,0],"split_type":[0,0,0,0,0,0,0,0,0,0,0,0,0,0,0,0,0,0,0,0,0,0,0,0,0,0,0,0,0,0,0,0,0],"sum_hessian":[2.89E3,1.6E3,1.29E3,1.508E3,9.2E1,8.5E1,1.205E3,1.072E3,4.36E2,6.6E1,2.6E1,8.6E1,1.119E3,8.28E2,2.44E2,4.5E1,3.91E2,5.2E1,3.4E1,8.67E2,2.52E2,7.52E2,7.6E1,1.86E2,5.8E1,1.7E1,2.8E1,1.37E2,2.54E2,4.39E2,4.28E2,8E1,1.72E2],"tree_param":{"num_deleted":"0","num_feature":"13","num_nodes":"33","size_leaf_vector":"1"}},{"base_weights":[2.9313198E-5,3.1514704E0,-3.9081483E0,2.8806002E0,7.5126724E0,-1.3687962E-2,-3.207508E0,3.5347254E0,1.2678837E0,7.9985345E-3,6.0287686E-3,-9.78004E0,-2.6940994E0,3.2383056E0,6.6978674E0,4.0064387E0,9.432882E-1,-1.0864873E-2,-8.095259E-3,-3.3770432E0,-3.403864E-1,2.883453E-3,6.5636327E-3,4.9582818E-3,7.514016E-3,2.7275772E-3,4.662062E-3,1.5814005E-3,5.942578E-4,-4.235228E-3,-2.488982E-3,1.3450196E-3,-1.1275396E-3],"categories":[],"categories_nodes":[],"categories_segments":[],"categories_sizes":[],"default_left":[0,0,0,0,0,0,0,0,0,0,0,0,0,0,0,0,0,0,0,0,0,0,0,0,0,0,0,0,0,0,0,0,0],"id":44,"left_children":[1,3,5,7,9,-1,11,13,15,-1,-1,17,19,21,23,25,27,-1,-1,29,31,-1,-1,-1,-1,-1,-1,-1,-1,-1,-1,-1,-1],"loss_changes":[3.5619004E4,1.8696514E3,8.802195E3,1.5873906E3,1.882959E1,0E0,4.0431719E3,9.84374E2,3.8467987E2,0E0,0E0,7.105664E1,1.7991997E3,1.1410166E3,9.194141E1,2.5852661E1,8.63667E1,0E0,0E0,6.509785E2,3.371647E2,0E0,0E0,0E0,0E0,0E0,0E0,0E0,0E0,0E0,0E0,0E0,0E0],"parents":[2147483647,0,0,1,1,2,2,3,3,4,4,6,6,7,7,8,8,11,11,12,12,13,13,14,14,15,15,16,16,19,19,20,20],"right_children":[2,4,6,8,10,-1,12,14,16,-1,-1,18,20,22,24,26,28,-1,-1,30,32,-1,-1,-1,-1,-1,-1,-1,-1,-1,-1,-1,-1],"split_conditions":[1.9025634E-1,5.103272E-1,2.5483724E-1,4.1012898E-1,5.716945E-1,-1.3687962E-2,6.771501E-2,4.2315504E-1,-1.0686E0,7.9985345E-3,6.0287686E-3,-6.275831E-2,1.7994678E0,1.3281873E-1,-2.4417807E-1,5.1832235E-1,-6.6521317E-1,-1.0864873E-2,-8.095259E-3,1.580658E-1,2.7018377E-1,2.883453E-3,6.5636327E-3,4.9582818E-3,7.514016E-3,2.7275772E-3,4.662062E-3,1.5814005E-3,5.942578E-4,-4.235228E-3,-2.488982E-3,1.3450196E-3,-1.1275396E-3],"split_indices":[8,7,6,7,3,0,5,5,10,0,0,0,8,12,0,3,8,0,0,5,6,0,0,0,0,0,0,0,0,0,0,0,0],"split_type":[0,0,0,0,0,0,0,0,0,0,0,0,0,0,0,0,0,0,0,0,0,0,0,0,0,0,0,0,0,0,0,0,0],"sum_hessian":[2.89E3,1.6E3,1.29E3,1.508E3,9.2E1,8.5E1,1.205E3,1.072E3,4.36E2,6.6E1,2.6E1,8.6E1,1.119E3,9.82E2,9E1,4.5E1,3.91E2,4.9E1,3.7E1,8.67E2,2.52E2,8.89E2,9.3E1,3.1E1,5.9E1,1.7E1,2.8E1,1.37E2,2.54E2,4.39E2,4.28E2,8E1,1.72E2],"tree_param":{"num_deleted":"0","num_feature":"13","num_nodes":"33","size_leaf_vector":"1"}},{"base_weights":[3.1074742E-5,3.148347E0,-3.904271E0,2.87774E0,7.5053096E0,-1.3674433E-2,-3.204322E0,3.5312107E0,1.2666373E0,7.990655E-3,6.0229627E-3,-9.770478E0,-2.6914115E0,4.0512176E0,1.7572643E0,4.002593E0,9.4235003E-1,-1.0746943E-2,-7.932256E-3,-3.3736744E0,-3.4004524E-1,4.3823426E-3,7.6046045E-4,2.1601103E-3,4.5066353E-4,2.7250014E-3,4.657561E-3,1.5798308E-3,5.936651E-4,-4.2310036E-3,-2.4864988E-3,1.3436915E-3,-1.1264189E-3],"categories":[],"categories_nodes":[],"categories_segments":[],"categories_sizes":[],"default_left":[0,0,0,0,0,0,0,0,0,0,0,0,0,0,0,0,0,0,0,0,0,0,0,0,0,0,0,0,0,0,0,0,0],"id":45,"left_children":[1,3,5,7,9,-1,11,13,15,-1,-1,17,19,21,23,25,27,-1,-1,29,31,-1,-1,-1,-1,-1,-1,-1,-1,-1,-1,-1,-1],"loss_changes":[3.554839E4,1.8660205E3,8.78483E3,1.5842148E3,1.878125E1,0E0,4.035333E3,9.8268555E2,3.8395013E2,0E0,0E0,7.091406E1,1.7956123E3,8.9998926E2,1.279845E2,2.5800049E1,8.619586E1,0E0,0E0,6.4968164E2,3.364972E2,0E0,0E0,0E0,0E0,0E0,0E0,0E0,0E0,0E0,0E0,0E0,0E0],"parents":[2147483647,0,0,1,1,2,2,3,3,4,4,6,6,7,7,8,8,11,11,12,12,13,13,14,14,15,15,16,16,19,19,20,20],"right_children":[2,4,6,8,10,-1,12,14,16,-1,-1,18,20,22,24,26,28,-1,-1,30,32,-1,-1,-1,-1,-1,-1,-1,-1,-1,-1,-1,-1],"split_conditions":[1.9025634E-1,5.103272E-1,2.5483724E-1,4.1012898E-1,5.716945E-1,-1.3674433E-2,6.771501E-2,2.8103483E-1,-1.0686E0,7.990655E-3,6.0229627E-3,5.0539214E-2,1.7994678E0,-3.5001582E-1,-2.3216525E-1,5.1832235E-1,-6.6521317E-1,-1.0746943E-2,-7.932256E-3,1.580658E-1,2.7018377E-1,4.3823426E-3,7.6046045E-4,2.1601103E-3,4.5066353E-4,2.7250014E-3,4.657561E-3,1.5798308E-3,5.936651E-4,-4.2310036E-3,-2.4864988E-3,1.3436915E-3,-1.1264189E-3],